<?xml version="1.0"?>
<opencv_storage>
<my_svm type_id="opencv-ml-svm">
  <svm_type>C_SVC</svm_type>
  <kernel><type>POLY</type>
    <degree>2.</degree>
    <gamma>1.</gamma>
    <coef0>0.</coef0></kernel>
  <C>1.</C>
  <term_criteria><epsilon>2.2204460492503131e-16</epsilon>
    <iterations>10000</iterations></term_criteria>
  <var_all>150</var_all>
  <var_count>150</var_count>
  <class_count>5</class_count>
  <class_labels type_id="opencv-matrix">
    <rows>1</rows>
    <cols>5</cols>
    <dt>i</dt>
    <data>
      0 1 2 3 4</data></class_labels>
  <sv_total>258</sv_total>
  <support_vectors>
    <_>
      -1.81027234e-01 -2.11320855e-02 7.28646517e-01 5.23375690e-01
      1.61455202e+00 4.05079222e+00 4.01946163e+00 3.73424315e+00
      4.65472078e+00 9.13390219e-01 2.70568520e-01 -4.79210079e-01
      -5.15942752e-01 -4.64084864e-01 -5.18103480e-01 -5.23505330e-01
      -5.22424996e-01 -5.21344602e-01 -5.24585724e-01 -5.23505330e-01
      -5.02978265e-01 -5.02978265e-01 -5.15942752e-01 -5.17023146e-01
      -5.25666118e-01 -5.19183874e-01 -5.25666118e-01 -5.25666118e-01
      -5.27826846e-01 -5.20264208e-01 -5.26746452e-01 -5.19183874e-01
      -5.26746452e-01 -5.18103480e-01 -5.23505330e-01 -5.27826846e-01
      -5.27826846e-01 -5.27826846e-01 -5.27826846e-01 -5.27826846e-01
      -5.27826846e-01 -5.27826846e-01 -5.27826846e-01 -5.27826846e-01
      -5.27826846e-01 -5.27826846e-01 -5.27826846e-01 -5.27826846e-01
      -5.27826846e-01 -5.27826846e-01 -2.44769216e-01 -3.67931694e-01
      4.57472980e-01 6.51940048e-01 2.01104879e+00 3.71155524e+00
      3.16704750e+00 2.44535851e+00 3.27400446e+00 1.73555374e+00
      9.40399528e-01 3.22426409e-01 6.52977228e-02 -2.17759907e-01
      -3.40922385e-01 -3.70092452e-01 -4.01423246e-01 -4.33834434e-01
      -4.58682984e-01 -4.59763378e-01 -4.54361498e-01 -4.71647471e-01
      -4.84611928e-01 -4.87853050e-01 -5.08380115e-01 -4.97576416e-01
      -5.08380115e-01 -5.09460509e-01 -5.15942752e-01 -5.22424996e-01
      -5.25666118e-01 -5.27826846e-01 -5.26746452e-01 -5.25666118e-01
      -5.27826846e-01 -5.25666118e-01 -5.26746452e-01 -5.27826846e-01
      -5.26746452e-01 -5.24585724e-01 -5.26746452e-01 -5.27826846e-01
      -5.26746452e-01 -5.26746452e-01 -5.27826846e-01 -5.27826846e-01
      -5.27826846e-01 -5.27826846e-01 -5.27826846e-01 -5.13782024e-01
      -5.27826846e-01 -5.26746452e-01 -5.19183874e-01 -4.47879285e-01
      2.16549888e-01 6.40055954e-01 1.01602566e+00 1.11974132e+00
      1.44061196e+00 6.59502685e-01 5.71992457e-01 3.96972120e-01
      2.48961076e-01 2.56523669e-01 2.21951753e-01 1.01987198e-02
      7.71818236e-02 -2.43732035e-02 2.31631920e-02 -4.92649665e-03
      1.22557476e-01 3.61276641e-02 1.11753747e-01 4.69313897e-02
      1.88417006e-02 1.59290135e-01 1.01987198e-02 -1.05401151e-01
      -5.35432659e-02 -1.54017925e-01 -1.64821640e-01 -1.70223504e-01
      -1.62660897e-01 -1.31330088e-01 -1.96152449e-01 -2.62055188e-01
      -2.41528094e-01 -2.75019646e-01 -2.68537402e-01 -2.70698160e-01
      -2.86903739e-01 -2.43688852e-01 -2.94466347e-01 -3.14993441e-01
      -3.37681264e-01 -3.23636413e-01 -2.52331823e-01 -1.11883387e-01
      -2.94466347e-01 -4.38155919e-01</_>
    <_>
      6.32925272e-01 -4.26485091e-01 1.94498207e-02 5.46005726e-01
      1.27537382e+00 5.95139170e+00 4.05049992e+00 2.27557802e+00
      1.68477726e+00 2.14703813e-01 -1.01481684e-01 3.48232359e-01
      -2.51386344e-01 -1.25416040e-01 -8.38458389e-02 -3.74837279e-01
      -1.79583281e-01 2.05885887e-01 -4.15147781e-01 2.28560537e-01
      4.47748899e-01 -1.33024622e-02 -3.30747664e-01 -2.27451995e-01
      -5.42377770e-01 -4.99547869e-01 -4.94509071e-01 -5.49935997e-01
      -6.05362952e-01 -5.53715110e-01 -5.97804725e-01 -5.86467385e-01
      -5.78909159e-01 -5.46156883e-01 -5.65052450e-01 -6.15440547e-01
      -6.15440547e-01 -6.15440547e-01 -6.15440547e-01 -6.15440547e-01
      -6.15440547e-01 -6.15440547e-01 -6.15440547e-01 -6.15440547e-01
      -6.15440547e-01 -6.15440547e-01 -6.15440547e-01 -6.15440547e-01
      -6.15440547e-01 -6.15440547e-01 9.80603337e-01 1.14184535e+00
      2.33982301e+00 3.03517914e+00 3.35640335e+00 3.87666082e+00
      2.82984757e+00 1.94931495e+00 1.34339774e+00 6.37964070e-01
      1.64315686e-01 4.08647731e-02 -1.09039903e-01 -2.77840137e-01
      -3.97511929e-01 -4.31523919e-01 -4.69314992e-01 -5.57494223e-01
      -5.28521061e-01 -5.76389790e-01 -5.99064410e-01 -5.92765927e-01
      -6.06622636e-01 -6.02843523e-01 -6.12921178e-01 -6.07882380e-01
      -6.07882380e-01 -6.09142065e-01 -6.12921178e-01 -6.09142065e-01
      -6.15440547e-01 -6.12921178e-01 -6.15440547e-01 -6.07882380e-01
      -6.14180863e-01 -6.15440547e-01 -6.15440547e-01 -6.15440547e-01
      -6.14180863e-01 -6.12921178e-01 -6.15440547e-01 -6.15440547e-01
      -6.15440547e-01 -6.15440547e-01 -6.14180863e-01 -6.15440547e-01
      -6.15440547e-01 -6.14180863e-01 -6.15440547e-01 -6.11661434e-01
      -6.15440547e-01 -6.12921178e-01 -5.82688272e-01 -4.45380658e-01
      1.69304144e-02 5.42226613e-01 5.63641608e-01 8.76047969e-01
      1.15192294e+00 6.36704385e-01 5.19551992e-01 4.01139885e-01
      2.85247177e-01 2.29820251e-01 1.56757459e-01 1.15187258e-01
      1.61796272e-01 4.71632890e-02 2.23521724e-01 1.83211237e-01
      2.43676975e-01 2.80208379e-01 3.04142743e-01 3.87283146e-01
      2.15963513e-01 2.04626188e-01 -2.33800877e-02 -3.34577113e-02
      -4.85741496e-02 -1.29195154e-01 -5.86517751e-02 -9.39234644e-02
      -6.99891075e-02 -3.84965241e-02 -1.06520496e-01 -1.88401207e-01
      -1.66986242e-01 -2.33750522e-01 -2.26192296e-01 -2.56425172e-01
      -2.33750522e-01 -2.95475960e-01 -3.50902915e-01 -3.78616393e-01
      -4.03810441e-01 -3.84914905e-01 -4.16407466e-01 -4.90729958e-01
      -5.12144923e-01 -3.49643201e-01</_>
    <_>
      -2.38354027e-01 -5.71307540e-01 -3.43831658e-01 -3.66706312e-01
      7.42715001e-01 5.86155701e+00 4.86905050e+00 2.68833256e+00
      9.57482755e-01 3.10587175e-02 -3.13332111e-01 -2.26916701e-01
      -4.11184847e-01 -3.98476690e-01 -3.48914921e-01 -4.16268110e-01
      -1.53209433e-01 4.05949086e-01 3.23295332e-02 8.58359158e-01
      3.62619376e+00 7.12215483e-01 -4.18809742e-01 -5.21745741e-01
      -6.04348719e-01 -5.99265456e-01 -6.09431982e-01 -6.15786016e-01
      -6.19598448e-01 -6.09431982e-01 -6.18327677e-01 -6.18327677e-01
      -6.15786016e-01 -6.15786016e-01 -6.17056847e-01 -6.20869279e-01
      -6.20869279e-01 -6.20869279e-01 -6.20869279e-01 -6.20869279e-01
      -6.20869279e-01 -6.20869279e-01 -6.20869279e-01 -6.20869279e-01
      -6.20869279e-01 -6.20869279e-01 -6.20869279e-01 -6.20869279e-01
      -6.20869279e-01 -6.20869279e-01 -1.76084101e-01 5.48280358e-01
      8.13880682e-01 1.42514253e+00 1.45310044e+00 1.87628174e+00
      1.59797335e+00 1.47470427e+00 2.84591341e+00 1.52680767e+00
      1.58018196e+00 2.07579970e+00 1.45310044e+00 1.14810491e+00
      3.71637106e-01 4.75793108e-02 -2.61228681e-01 -4.06101584e-01
      -4.67100710e-01 -5.19204080e-01 -5.56057751e-01 -5.67495048e-01
      -5.80203235e-01 -6.03077888e-01 -6.05619490e-01 -6.13244414e-01
      -6.09431982e-01 -6.18327677e-01 -6.19598448e-01 -6.20869279e-01
      -6.20869279e-01 -6.20869279e-01 -6.20869279e-01 -6.20869279e-01
      -6.18327677e-01 -6.20869279e-01 -6.20869279e-01 -6.20869279e-01
      -6.20869279e-01 -6.20869279e-01 -6.20869279e-01 -6.20869279e-01
      -6.20869279e-01 -6.20869279e-01 -6.20869279e-01 -6.20869279e-01
      -6.20869279e-01 -6.20869279e-01 -6.20869279e-01 -6.20869279e-01
      -6.20869279e-01 -6.20869279e-01 -6.18327677e-01 -5.84015667e-01
      -8.33146200e-02 2.59754583e-02 2.55992949e-01 2.72513539e-01
      2.30576649e-01 6.28290847e-02 8.57037529e-02 1.22557387e-01
      2.35659912e-01 3.06825548e-01 6.09279454e-01 6.79174304e-01
      1.24595773e+00 1.06423116e+00 9.16816652e-01 6.52487159e-01
      5.24134874e-01 3.88157696e-01 3.09367180e-01 3.34783465e-01
      4.18657243e-01 5.63530147e-01 2.73784339e-01 1.45381251e-02
      -2.35863198e-02 -2.73987651e-02 -2.48571355e-02 -1.21439062e-01
      -1.81167364e-01 -1.71000838e-01 -2.86644995e-01 -3.52727354e-01
      -3.66706312e-01 -3.51456553e-01 -3.92122626e-01 -3.47644091e-01
      -3.52727354e-01 -3.13332111e-01 -4.20080543e-01 -4.67100710e-01
      -4.54392552e-01 -4.36601132e-01 -4.81079668e-01 -4.77267206e-01
      -4.74725574e-01 -5.42078793e-01</_>
    <_>
      -4.56786245e-01 1.06628306e-01 -9.93964151e-02 2.77965188e-01
      2.45488954e+00 3.15810657e+00 4.84309435e+00 5.45381069e+00
      3.74674869e+00 3.70466083e-01 -2.16073677e-01 -3.00165385e-01
      -4.76758003e-01 -4.66246545e-01 -4.88320619e-01 -4.95678663e-01
      -4.99883235e-01 -5.03036678e-01 -5.10394692e-01 -5.06190121e-01
      -5.09343565e-01 -5.08292437e-01 -5.13548136e-01 -5.12497008e-01
      -5.13548136e-01 -5.10394692e-01 -5.13548136e-01 -5.13548136e-01
      -5.13548136e-01 -5.13548136e-01 -5.13548136e-01 -5.13548136e-01
      -5.13548136e-01 -5.13548136e-01 -5.13548136e-01 -5.13548136e-01
      -5.13548136e-01 -5.13548136e-01 -5.13548136e-01 -5.13548136e-01
      -5.13548136e-01 -5.13548136e-01 -5.13548136e-01 -5.13548136e-01
      -5.13548136e-01 -5.13548136e-01 -5.13548136e-01 -5.13548136e-01
      -5.13548136e-01 -5.13548136e-01 -5.11445820e-01 -4.53632802e-01
      -1.29879668e-01 1.25237799e+00 2.16687536e+00 2.61886835e+00
      3.16546464e+00 2.78179622e+00 3.00569034e+00 1.33541858e+00
      7.82515526e-01 4.54557806e-01 9.71679837e-02 -1.54056028e-01
      -2.20278263e-01 -2.77040184e-01 -2.92807370e-01 -3.93717438e-01
      -3.84257108e-01 -4.19996113e-01 -4.27354127e-01 -4.29456413e-01
      -4.53632802e-01 -4.22098398e-01 -4.70451146e-01 -4.52581644e-01
      -4.47325915e-01 -4.26302969e-01 -4.32609856e-01 -4.41019028e-01
      -4.32609856e-01 -4.65195388e-01 -4.83064890e-01 -4.84116048e-01
      -5.01985550e-01 -5.03036678e-01 -5.08292437e-01 -5.10394692e-01
      -5.11445820e-01 -5.10394692e-01 -5.06190121e-01 -5.11445820e-01
      -5.13548136e-01 -5.10394692e-01 -5.12497008e-01 -5.13548136e-01
      -5.10394692e-01 -5.12497008e-01 -5.13548136e-01 -5.06190121e-01
      -5.13548136e-01 -5.13548136e-01 -5.13548136e-01 -4.84116048e-01
      -3.06472272e-01 -1.98204190e-01 -1.78232402e-01 -2.47650091e-02
      1.38162702e-01 -3.21230367e-02 -7.73223341e-02 -2.47650091e-02
      2.35877298e-02 2.41175056e-01 4.36688304e-01 6.41661882e-01
      9.79079902e-01 6.80554330e-01 6.61633670e-01 5.75439632e-01
      4.74529594e-01 3.47340852e-01 3.06346148e-01 3.26317936e-01
      2.70607173e-01 2.87425518e-01 1.51785584e-02 5.72244190e-02
      -2.68673021e-02 2.56479997e-03 -2.79184487e-02 -3.21230367e-02
      -9.30895358e-02 6.76938612e-03 -1.08856730e-01 -1.33033097e-01
      -1.23572782e-01 -1.53004885e-01 -1.41442269e-01 -1.56158328e-01
      -1.62465200e-01 -1.27777368e-01 -2.01357618e-01 -2.58119524e-01
      -2.65477568e-01 -2.88602799e-01 -2.51812667e-01 -3.01216543e-01
      -3.69541079e-01 -3.83205980e-01</_>
    <_>
      -4.55468565e-01 -2.87927270e-01 -3.71230803e-02 1.97394099e-02
      5.21347821e-01 4.04174519e+00 4.75760317e+00 5.05714703e+00
      4.44689035e+00 -7.67643377e-03 7.15248957e-02 -5.64157106e-02
      -4.26021904e-01 -6.55543283e-02 -4.42268342e-01 -4.81868982e-01
      -3.89467448e-01 -4.36175913e-01 -4.84915197e-01 -4.83899802e-01
      -4.87961411e-01 -4.93038416e-01 -4.96084630e-01 -4.89992201e-01
      -4.96084630e-01 -4.96084630e-01 -4.95069206e-01 -4.96084630e-01
      -4.96084630e-01 -4.95069206e-01 -4.95069206e-01 -4.96084630e-01
      -4.96084630e-01 -4.95069206e-01 -4.96084630e-01 -4.96084630e-01
      -4.96084630e-01 -4.96084630e-01 -4.96084630e-01 -4.96084630e-01
      -4.96084630e-01 -4.96084630e-01 -4.96084630e-01 -4.96084630e-01
      -4.96084630e-01 -4.96084630e-01 -4.96084630e-01 -4.96084630e-01
      -4.96084630e-01 -4.96084630e-01 -3.56974602e-01 1.31433591e-01
      5.40640473e-01 1.29711461e+00 2.16629839e+00 3.11468363e+00
      2.29728532e+00 2.09014320e+00 2.71258450e+00 1.27477574e+00
      8.07691097e-01 3.97468805e-01 1.77126661e-01 3.39550339e-02
      -1.32570833e-01 -2.30049387e-01 -2.35126406e-01 -4.04698461e-01
      -4.31098908e-01 -4.56483960e-01 -4.67653364e-01 -4.74761188e-01
      -4.72730368e-01 -4.84915197e-01 -4.92023021e-01 -4.96084630e-01
      -4.96084630e-01 -4.96084630e-01 -4.96084630e-01 -4.96084630e-01
      -4.96084630e-01 -4.96084630e-01 -4.96084630e-01 -4.96084630e-01
      -4.96084630e-01 -4.96084630e-01 -4.96084630e-01 -4.96084630e-01
      -4.96084630e-01 -4.96084630e-01 -4.96084630e-01 -4.96084630e-01
      -4.96084630e-01 -4.96084630e-01 -4.96084630e-01 -4.96084630e-01
      -4.96084630e-01 -4.96084630e-01 -4.96084630e-01 -4.96084630e-01
      -4.96084630e-01 -4.96084630e-01 -4.96084630e-01 -4.96084630e-01
      -4.82884407e-01 -3.61036211e-01 -2.24972382e-01 1.09094754e-01
      9.21416044e-01 1.34585392e+00 1.57025766e+00 8.91969383e-01
      6.22887969e-01 3.65991354e-01 6.32026613e-01 4.70577747e-01
      6.84827507e-01 4.69562322e-01 5.84302723e-01 5.72117925e-01
      2.99990267e-01 2.79682219e-01 9.58945304e-02 1.07063949e-01
      -1.98612530e-02 8.47251117e-02 -4.42308933e-02 -9.19547677e-02
      -1.92479536e-01 -1.85371712e-01 -2.54419029e-01 -2.25987777e-01
      -2.45280415e-01 -2.08725959e-01 -2.27003187e-01 -2.10756764e-01
      -2.93004304e-01 -3.48851383e-01 -3.57989997e-01 -3.32604945e-01
      -3.46820593e-01 -2.96050489e-01 -3.28543335e-01 -3.77282619e-01
      -3.80328834e-01 -3.79313439e-01 -3.86421233e-01 -4.01652277e-01
      -4.55468565e-01 -4.64607179e-01</_>
    <_>
      1.00288592e-01 6.12982690e-01 5.65676749e-01 5.84854841e-01
      6.44895062e-02 9.17274952e-01 1.46264881e-02 1.09243476e+00
      2.27636170e+00 1.15891874e+00 9.00653958e-01 2.57042575e+00
      1.06047130e+00 1.68184114e+00 1.52585936e+00 6.04032934e-01
      1.36092782e+00 8.52069438e-01 -3.01223733e-02 -3.27305635e-03
      -3.74049336e-01 -5.27473986e-01 -5.74779928e-01 -5.60716033e-01
      -6.23364389e-01 -5.85008264e-01 -5.60716033e-01 -6.06743395e-01
      -6.14414632e-01 -5.78615546e-01 -6.08021975e-01 -5.82451165e-01
      -5.69665790e-01 -5.76058447e-01 -5.99072158e-01 -6.24642968e-01
      -6.24642968e-01 -6.24642968e-01 -6.24642968e-01 -6.24642968e-01
      -6.24642968e-01 -6.24642968e-01 -6.24642968e-01 -6.24642968e-01
      -6.24642968e-01 -6.24642968e-01 -6.24642968e-01 -6.24642968e-01
      -6.24642968e-01 -6.24642968e-01 1.93621933e-01 2.41955805e+00
      4.24914742e+00 5.64914751e+00 4.26960373e+00 2.76987767e+00
      1.52969503e+00 7.80471265e-01 4.53165323e-01 -8.25424641e-02
      -1.89939737e-01 -2.37245679e-01 -3.15236539e-01 -3.21629226e-01
      -3.31857562e-01 -3.59985411e-01 -4.20076728e-01 -4.86560762e-01
      -5.17245710e-01 -5.35145223e-01 -5.14688611e-01 -5.37702322e-01
      -6.02907777e-01 -6.22085869e-01 -6.24642968e-01 -6.23364389e-01
      -6.24642968e-01 -6.24642968e-01 -6.24642968e-01 -6.24642968e-01
      -6.24642968e-01 -6.24642968e-01 -6.24642968e-01 -6.24642968e-01
      -6.24642968e-01 -6.24642968e-01 -6.24642968e-01 -6.24642968e-01
      -6.24642968e-01 -6.24642968e-01 -6.24642968e-01 -6.24642968e-01
      -6.24642968e-01 -6.24642968e-01 -6.24642968e-01 -6.24642968e-01
      -6.24642968e-01 -6.24642968e-01 -6.24642968e-01 -6.24642968e-01
      -6.24642968e-01 -6.24642968e-01 -6.23364389e-01 -5.79894066e-01
      -3.51035625e-01 -2.21903205e-01 -1.18341558e-01 1.36087686e-01
      6.21932447e-01 9.05768096e-01 1.42357624e+00 1.06174982e+00
      1.30595076e+00 1.24969506e+00 1.04385030e+00 9.26224709e-01
      1.05663574e+00 4.60836560e-01 2.53713250e-01 6.83251247e-02
      1.07908715e-02 4.91470397e-02 -7.48712346e-02 -1.27291322e-01
      -1.27291322e-01 -5.44146113e-02 -2.11674899e-01 -1.84825584e-01
      -2.58980840e-01 -2.50031054e-01 -2.80716002e-01 -2.39802748e-01
      -3.31857562e-01 -2.76880383e-01 -3.16515088e-01 -2.99894065e-01
      -2.69209146e-01 -2.07839280e-01 -1.87382653e-01 -2.19346121e-01
      -1.87382653e-01 -1.10670321e-01 -2.50031054e-01 -2.48752519e-01
      -3.31857562e-01 -3.39528769e-01 -4.21355277e-01 -4.76332456e-01
      -5.58158934e-01 -5.87565303e-01</_>
    <_>
      -4.52661157e-01 1.56501323e-01 -4.65528369e-02 3.07188898e-01
      2.74277020e+00 3.39040613e+00 4.40353966e+00 4.81606007e+00
      4.16521788e+00 6.56655788e-01 -2.11133584e-01 -2.63500184e-01
      -4.70829189e-01 -4.88997191e-01 -5.00752926e-01 -5.16783535e-01
      -5.07165194e-01 -5.15714824e-01 -5.16783535e-01 -5.15714824e-01
      -5.11439979e-01 -5.14646113e-01 -5.17852247e-01 -5.18920958e-01
      -5.21058381e-01 -5.22127092e-01 -5.21058381e-01 -5.21058381e-01
      -5.22127092e-01 -5.22127092e-01 -5.21058381e-01 -5.22127092e-01
      -5.21058381e-01 -5.21058381e-01 -5.22127092e-01 -5.22127092e-01
      -5.22127092e-01 -5.22127092e-01 -5.22127092e-01 -5.22127092e-01
      -5.22127092e-01 -5.22127092e-01 -5.22127092e-01 -5.22127092e-01
      -5.22127092e-01 -5.22127092e-01 -5.22127092e-01 -5.22127092e-01
      -5.22127092e-01 -5.22127092e-01 -5.19989669e-01 -4.98615533e-01
      -2.94535384e-02 1.15360415e+00 2.17528725e+00 2.79941154e+00
      3.85636187e+00 3.00887799e+00 2.57925820e+00 1.21238291e+00
      6.80167317e-01 2.11005345e-01 -7.01070949e-03 -1.92965582e-01
      -2.44263470e-01 -2.89149135e-01 -3.07317138e-01 -3.75714332e-01
      -3.75714332e-01 -4.10981625e-01 -4.35561866e-01 -4.19531286e-01
      -4.44111526e-01 -4.44111526e-01 -4.47317630e-01 -4.17393863e-01
      -4.61210817e-01 -4.53729868e-01 -4.44111526e-01 -4.44111526e-01
      -4.37699288e-01 -4.47317630e-01 -4.61210817e-01 -4.64416951e-01
      -4.90065873e-01 -4.97546822e-01 -5.01821637e-01 -5.13577402e-01
      -5.12508690e-01 -5.15714824e-01 -5.13577402e-01 -5.11439979e-01
      -5.18920958e-01 -5.14646113e-01 -5.18920958e-01 -5.18920958e-01
      -5.16783535e-01 -5.21058381e-01 -5.16783535e-01 -5.21058381e-01
      -5.22127092e-01 -5.22127092e-01 -5.22127092e-01 -4.76172715e-01
      -2.99836189e-01 -1.26705796e-01 -2.41100080e-02 -5.40337786e-02
      1.77875459e-01 8.27606097e-02 8.16918984e-02 1.63982272e-01
      2.11005345e-01 2.54822284e-01 5.52991331e-01 5.49785197e-01
      8.13755631e-01 6.11770153e-01 4.92075056e-01 5.25204957e-01
      4.54670340e-01 3.90547961e-01 3.48868430e-01 3.16807240e-01
      2.13142753e-01 1.97112158e-01 2.61191800e-02 5.06994203e-02
      3.14627104e-02 -1.44916531e-02 -4.76215445e-02 -8.93010795e-02
      -9.99881476e-02 -1.23542408e-02 -9.03697908e-02 -8.07514340e-02
      -1.24568388e-01 -1.18156150e-01 -8.50262567e-02 -1.58766985e-01
      -1.58766985e-01 -1.19224854e-01 -2.39988655e-01 -2.77393371e-01
      -3.50065380e-01 -3.19072902e-01 -3.68233383e-01 -3.65027279e-01
      -4.10981625e-01 -4.69760478e-01</_>
    <_>
      -4.61649239e-01 -2.63264954e-01 -2.31748875e-02 2.23678276e-01
      1.98772025e+00 5.38843250e+00 3.62777209e+00 3.03036475e+00
      3.16675401e+00 -1.15603924e-01 1.59428820e-01 9.63110566e-01
      -2.21559167e-01 2.43967578e-01 -2.81299889e-01 -2.58756220e-01
      5.02092600e-01 -2.81299889e-01 -5.18008411e-01 -4.80811357e-01
      -4.86447275e-01 -5.32661796e-01 -5.36043346e-01 -5.41679263e-01
      -5.50696731e-01 -5.48442364e-01 -5.42806447e-01 -5.47315180e-01
      -5.50696731e-01 -5.47315180e-01 -5.50696731e-01 -5.47315180e-01
      -5.49569547e-01 -5.45060813e-01 -5.50696731e-01 -5.50696731e-01
      -5.50696731e-01 -5.50696731e-01 -5.50696731e-01 -5.50696731e-01
      -5.50696731e-01 -5.50696731e-01 -5.50696731e-01 -5.50696731e-01
      -5.50696731e-01 -5.50696731e-01 -5.50696731e-01 -5.50696731e-01
      -5.50696731e-01 -5.50696731e-01 8.05259869e-02 1.44103622e+00
      1.93023384e+00 1.87951064e+00 1.85020387e+00 2.93680859e+00
      3.18929768e+00 2.78689313e+00 2.73842430e+00 7.09494293e-01
      2.66511232e-01 3.09299156e-02 -1.58436894e-01 -3.59075546e-01
      -4.31215286e-01 -4.46995854e-01 -4.35724020e-01 -4.85320091e-01
      -5.07863760e-01 -5.16881227e-01 -5.34916162e-01 -5.47315180e-01
      -5.50696731e-01 -5.49569547e-01 -5.50696731e-01 -5.49569547e-01
      -5.50696731e-01 -5.50696731e-01 -5.50696731e-01 -5.50696731e-01
      -5.50696731e-01 -5.50696731e-01 -5.49569547e-01 -5.50696731e-01
      -5.50696731e-01 -5.50696731e-01 -5.50696731e-01 -5.50696731e-01
      -5.50696731e-01 -5.50696731e-01 -5.50696731e-01 -5.50696731e-01
      -5.50696731e-01 -5.50696731e-01 -5.50696731e-01 -5.50696731e-01
      -5.50696731e-01 -5.50696731e-01 -5.50696731e-01 -5.50696731e-01
      -5.50696731e-01 -5.50696731e-01 -5.50696731e-01 -5.49569547e-01
      -5.42806447e-01 -4.45868671e-01 -1.03204906e-01 7.30910778e-01
      1.57517111e+00 1.39933050e+00 1.27195871e+00 7.73743749e-01
      4.20935363e-01 4.61513966e-01 2.27059826e-01 2.04516158e-01
      2.87927717e-01 2.03388974e-01 2.43967578e-01 3.93882960e-01
      4.90820736e-01 6.55389488e-01 6.47499204e-01 6.31718636e-01
      3.78102392e-01 3.89374226e-01 2.57493764e-01 1.66191921e-01
      2.86755487e-02 -1.18985474e-01 -1.43783510e-01 -2.62137771e-01
      -3.59075546e-01 -3.43294978e-01 -3.92891049e-01 -4.31215286e-01
      -4.19943452e-01 -3.99654150e-01 -4.43614304e-01 -4.45868671e-01
      -4.34596837e-01 -4.15434718e-01 -4.34596837e-01 -4.86447275e-01
      -5.08990943e-01 -4.61649239e-01 -4.87574458e-01 -4.95464742e-01
      -5.14626861e-01 -5.46187997e-01</_>
    <_>
      -4.75923866e-01 1.69821479e-03 -1.94067881e-01 -7.02399239e-02
      1.87208986e+00 3.02663803e+00 3.35802531e+00 2.95823789e+00
      2.15748382e+00 -1.58688456e-01 -4.60592806e-01 -4.00447786e-01
      -4.75923866e-01 -4.38185841e-01 -4.16958183e-01 -3.81578773e-01
      -3.09640616e-01 -1.51612580e-01 -9.50055197e-02 1.35672975e+00
      5.33927250e+00 -2.89639439e-02 -5.27813673e-01 -5.65551698e-01
      -5.69089651e-01 -5.72627604e-01 -5.71448326e-01 -5.71448326e-01
      -5.74986219e-01 -5.70268989e-01 -5.74986219e-01 -5.69089651e-01
      -5.71448326e-01 -5.65551698e-01 -5.65551698e-01 -5.76165557e-01
      -5.76165557e-01 -5.76165557e-01 -5.76165557e-01 -5.76165557e-01
      -5.76165557e-01 -5.76165557e-01 -5.76165557e-01 -5.76165557e-01
      -5.76165557e-01 -5.76165557e-01 -5.76165557e-01 -5.76165557e-01
      -5.76165557e-01 -5.76165557e-01 -5.57296515e-01 -4.93613571e-01
      -7.73158073e-02 1.55009016e-01 7.22258925e-01 1.87091053e+00
      3.36510110e+00 3.59860516e+00 4.39110422e+00 2.42400861e+00
      1.14091539e+00 7.12824464e-01 5.17058372e-01 2.19871268e-01
      -3.36811990e-02 -1.24488361e-01 -8.67503211e-02 -2.99026817e-01
      -3.87475342e-01 -3.99268478e-01 -4.39365149e-01 -4.61772114e-01
      -4.72385943e-01 -5.07765353e-01 -5.17199874e-01 -5.49041331e-01
      -5.56117237e-01 -5.64372420e-01 -5.69089651e-01 -5.56117237e-01
      -5.66731036e-01 -5.65551698e-01 -5.74986219e-01 -5.63193083e-01
      -5.72627604e-01 -5.71448326e-01 -5.74986219e-01 -5.74986219e-01
      -5.74986219e-01 -5.73806942e-01 -5.76165557e-01 -5.74986219e-01
      -5.74986219e-01 -5.76165557e-01 -5.76165557e-01 -5.74986219e-01
      -5.76165557e-01 -5.73806942e-01 -5.76165557e-01 -5.72627604e-01
      -5.76165557e-01 -5.76165557e-01 -5.73806942e-01 -5.54937899e-01
      -4.53516930e-01 -2.56571501e-01 5.83052784e-02 4.06202853e-01
      4.73423749e-01 1.36139989e-01 1.99822932e-01 5.05265236e-01
      5.38285971e-01 6.38527691e-01 5.67768872e-01 5.22954941e-01
      5.17058372e-01 3.50775093e-01 3.04781854e-01 2.65864521e-01
      2.11616069e-01 2.75299013e-01 2.17512637e-01 1.57367632e-01
      1.18450284e-01 2.61147261e-01 8.89674351e-02 8.66088122e-02
      5.83052784e-02 2.29258630e-02 -3.36811990e-02 -3.25018875e-02
      -6.31640479e-02 1.93879213e-02 -1.52791888e-01 -7.73158073e-02
      -1.46895319e-01 -1.51612580e-01 -1.05619341e-01 -8.43916908e-02
      -7.37778693e-02 -4.19363976e-02 -2.16474846e-01 -3.41482103e-01
      -3.72144252e-01 -3.92192602e-01 -4.24034059e-01 -4.66489375e-01
      -4.73565251e-01 -3.61530453e-01</_>
    <_>
      -5.45868218e-01 -5.41334033e-01 -5.02793670e-01 -3.38430136e-01
      9.36803997e-01 4.08804941e+00 6.41067553e+00 4.32836008e+00
      1.82890105e+00 2.60079771e-01 -1.29858509e-01 4.98761015e-04
      2.09025070e-02 1.56927481e-01 2.28340596e-01 3.65499109e-01
      7.97378421e-01 7.30454177e-02 -3.35029513e-01 -5.03927171e-01
      -5.40200531e-01 -5.51535964e-01 -5.53803027e-01 -5.53803027e-01
      -5.53803027e-01 -5.53803027e-01 -5.53803027e-01 -5.53803027e-01
      -5.53803027e-01 -5.53803027e-01 -5.53803027e-01 -5.53803027e-01
      -5.53803027e-01 -5.53803027e-01 -5.53803027e-01 -5.53803027e-01
      -5.53803027e-01 -5.53803027e-01 -5.53803027e-01 -5.53803027e-01
      -5.53803027e-01 -5.53803027e-01 -5.53803027e-01 -5.53803027e-01
      -5.53803027e-01 -5.53803027e-01 -5.53803027e-01 -5.53803027e-01
      -5.53803027e-01 -5.53803027e-01 -5.29998660e-01 -3.84905338e-01
      3.24691623e-01 1.41629195e+00 2.25737977e+00 1.88557816e+00
      1.67020524e+00 1.95585775e+00 3.23902678e+00 2.41380858e+00
      1.86857498e+00 1.32334161e+00 7.52036750e-01 4.22176182e-01
      -5.61783127e-02 -2.50013918e-01 -3.27094734e-01 -4.65386778e-01
      -5.00526547e-01 -5.17529666e-01 -5.33399284e-01 -5.44734657e-01
      -5.42467594e-01 -5.36799908e-01 -5.50402403e-01 -5.35666347e-01
      -5.42467594e-01 -5.49268842e-01 -5.44734657e-01 -5.53803027e-01
      -5.53803027e-01 -5.52669466e-01 -5.51535964e-01 -5.50402403e-01
      -5.53803027e-01 -5.52669466e-01 -5.52669466e-01 -5.53803027e-01
      -5.53803027e-01 -5.53803027e-01 -5.53803027e-01 -5.53803027e-01
      -5.53803027e-01 -5.51535964e-01 -5.52669466e-01 -5.53803027e-01
      -5.53803027e-01 -5.53803027e-01 -5.53803027e-01 -5.53803027e-01
      -5.53803027e-01 -5.53803027e-01 -5.45868218e-01 -5.14129043e-01
      -4.13243890e-01 -3.25961173e-01 -2.74951816e-01 -2.50013918e-01
      -8.11162218e-02 5.49087524e-02 1.86354239e-02 3.42828274e-01
      5.32129705e-01 3.63232017e-01 2.78216422e-01 5.33263266e-01
      8.64257336e-01 6.33014917e-01 6.27347171e-01 7.62238622e-01
      6.84024274e-01 6.63620532e-01 4.61850137e-01 3.67766201e-01
      2.96353072e-01 4.60716605e-01 7.30454177e-02 9.00485367e-02
      4.98761015e-04 7.30000995e-03 -1.87714435e-02 -4.48428988e-02
      -6.29795641e-02 1.75018832e-02 -1.15122467e-01 -7.65820593e-02
      -1.15122467e-01 -1.58197045e-01 -1.53662875e-01 -2.31877238e-01
      -2.30743691e-01 -2.61349320e-01 -3.38430136e-01 -3.65635127e-01
      -4.20045137e-01 -4.07576174e-01 -4.09843236e-01 -3.89439493e-01
      -3.91706586e-01 -4.27979916e-01</_>
    <_>
      -4.57413644e-01 -3.34988117e-01 1.13905519e-01 2.27373093e-01
      9.38038409e-01 3.62343740e+00 4.47046280e+00 5.81316233e+00
      3.94293833e+00 -4.13658954e-02 4.52277772e-02 -1.52842805e-01
      -4.67366964e-01 -3.28020811e-01 -4.62390304e-01 -4.86278206e-01
      -4.52437013e-01 -4.48455691e-01 -4.84287560e-01 -4.86278206e-01
      -4.86278206e-01 -4.86278206e-01 -4.86278206e-01 -4.84287560e-01
      -4.86278206e-01 -4.86278206e-01 -4.82296884e-01 -4.86278206e-01
      -4.86278206e-01 -4.82296884e-01 -4.86278206e-01 -4.86278206e-01
      -4.83292222e-01 -4.84287560e-01 -4.85282868e-01 -4.86278206e-01
      -4.86278206e-01 -4.86278206e-01 -4.86278206e-01 -4.86278206e-01
      -4.86278206e-01 -4.86278206e-01 -4.86278206e-01 -4.86278206e-01
      -4.86278206e-01 -4.86278206e-01 -4.86278206e-01 -4.86278206e-01
      -4.86278206e-01 -4.86278206e-01 -3.96698564e-01 -2.84266099e-02
      3.32838222e-02 9.83823538e-01 2.02792430e+00 2.83812237e+00
      2.92471623e+00 2.72365952e+00 2.20210695e+00 1.18189406e+00
      8.03668916e-01 6.12565637e-01 2.57232964e-01 9.39591322e-03
      -1.38908193e-01 -2.16543898e-01 -2.44413123e-01 -3.45936745e-01
      -3.99684548e-01 -4.26558435e-01 -4.49451029e-01 -4.69357610e-01
      -4.59404320e-01 -4.78315562e-01 -4.71348256e-01 -4.72343594e-01
      -4.81301576e-01 -4.82296884e-01 -4.80306238e-01 -4.82296884e-01
      -4.84287560e-01 -4.80306238e-01 -4.80306238e-01 -4.78315562e-01
      -4.81301576e-01 -4.84287560e-01 -4.81301576e-01 -4.82296884e-01
      -4.83292222e-01 -4.84287560e-01 -4.86278206e-01 -4.84287560e-01
      -4.84287560e-01 -4.86278206e-01 -4.86278206e-01 -4.82296884e-01
      -4.86278206e-01 -4.86278206e-01 -4.86278206e-01 -4.86278206e-01
      -4.86278206e-01 -4.86278206e-01 -4.86278206e-01 -4.86278206e-01
      -4.74334270e-01 -4.19591129e-01 -3.15081537e-01 -9.01370421e-02
      5.62799156e-01 9.86809552e-01 1.93635392e+00 1.49044621e+00
      8.89267266e-01 6.34462893e-01 5.09051383e-01 5.11041999e-01
      5.80715060e-01 3.06999445e-01 3.83639842e-01 3.51789296e-01
      3.00032139e-01 1.21868156e-01 1.11914858e-01 6.81203604e-02
      4.72184382e-02 9.00176093e-02 -6.22678138e-02 -1.11038961e-01
      -1.24973580e-01 -1.49856821e-01 -1.68768078e-01 -2.09576592e-01
      -2.06590608e-01 -1.16015613e-01 -1.88674673e-01 -1.97632641e-01
      -2.82235652e-01 -3.12095523e-01 -3.41955423e-01 -3.18067521e-01
      -3.28020811e-01 -3.15081537e-01 -3.58876020e-01 -3.59871358e-01
      -3.70819986e-01 -3.96698564e-01 -4.01675195e-01 -4.11628485e-01
      -4.39497709e-01 -4.66371626e-01</_>
    <_>
      -4.79969293e-01 -3.05770367e-01 -7.91978911e-02 -3.59327979e-02
      1.58878529e+00 5.20369768e+00 4.84163761e+00 3.26018429e+00
      3.66550994e+00 9.95552614e-02 -4.73183505e-02 8.95405293e-01
      -8.83063376e-02 -2.56812483e-01 -2.95523375e-01 -1.93053409e-01
      -5.64267896e-02 -2.46565506e-01 -4.82246429e-01 -4.56059635e-01
      -4.68583763e-01 -5.38035631e-01 -5.53975403e-01 -5.41451275e-01
      -5.56252480e-01 -5.52836835e-01 -5.38035631e-01 -5.52836835e-01
      -5.56252480e-01 -5.53975403e-01 -5.56252480e-01 -5.56252480e-01
      -5.56252480e-01 -5.52836835e-01 -5.53975403e-01 -5.56252480e-01
      -5.56252480e-01 -5.56252480e-01 -5.56252480e-01 -5.56252480e-01
      -5.56252480e-01 -5.56252480e-01 -5.56252480e-01 -5.56252480e-01
      -5.56252480e-01 -5.56252480e-01 -5.56252480e-01 -5.56252480e-01
      -5.56252480e-01 -5.56252480e-01 -2.92107701e-01 8.46447468e-01
      2.10455084e+00 1.31211638e+00 1.62294197e+00 1.85634577e+00
      2.02143621e+00 2.43245459e+00 3.23969030e+00 2.03396034e+00
      1.49428523e+00 4.54784483e-01 5.97058348e-02 -1.30432874e-01
      -2.82999277e-01 -3.67252350e-01 -3.78637910e-01 -4.82246429e-01
      -4.78830755e-01 -4.99324739e-01 -5.05017519e-01 -5.15264511e-01
      -5.44866920e-01 -5.43728411e-01 -5.52836835e-01 -5.55113971e-01
      -5.56252480e-01 -5.56252480e-01 -5.56252480e-01 -5.56252480e-01
      -5.56252480e-01 -5.56252480e-01 -5.56252480e-01 -5.56252480e-01
      -5.56252480e-01 -5.56252480e-01 -5.56252480e-01 -5.56252480e-01
      -5.56252480e-01 -5.56252480e-01 -5.56252480e-01 -5.56252480e-01
      -5.56252480e-01 -5.56252480e-01 -5.56252480e-01 -5.56252480e-01
      -5.56252480e-01 -5.56252480e-01 -5.56252480e-01 -5.56252480e-01
      -5.56252480e-01 -5.56252480e-01 -5.56252480e-01 -5.56252480e-01
      -5.39174199e-01 -4.67445195e-01 -2.45426938e-01 2.58952975e-01
      1.39978516e+00 9.14760768e-01 1.07643557e+00 1.05366445e+00
      5.87995410e-01 3.07910860e-01 3.20434958e-01 2.12272227e-01
      3.26127738e-01 3.19296420e-01 2.60091543e-01 3.13603640e-01
      3.64838600e-01 3.40928942e-01 2.96525300e-01 3.43206078e-01
      2.82862633e-01 3.35236192e-01 1.86085463e-01 1.88362569e-01
      1.48513138e-01 2.94248194e-01 1.04109488e-01 -9.74602904e-03
      -8.03364515e-02 -1.34987101e-01 -2.43149832e-01 -2.62505263e-01
      -2.72752255e-01 -3.04631799e-01 -3.27402920e-01 -4.18487340e-01
      -4.49228317e-01 -3.99131894e-01 -4.32149976e-01 -4.35565650e-01
      -4.68583763e-01 -4.71999407e-01 -4.70860869e-01 -4.94770527e-01
      -5.26650071e-01 -5.56252480e-01</_>
    <_>
      -5.16211033e-01 -5.48219860e-01 -4.97920275e-01 -3.08153629e-01
      8.87605011e-01 1.65924644e+00 3.17966604e+00 3.93644643e+00
      3.68723488e+00 2.49147606e+00 6.06384516e-01 2.22740340e+00
      7.73287714e-01 7.69858181e-01 6.90933615e-02 -3.05867285e-01
      -1.78975105e-01 -3.68741781e-01 -4.77343172e-01 -4.63625103e-01
      -5.17354190e-01 -5.21926939e-01 -5.47076702e-01 -5.44790387e-01
      -5.52792549e-01 -5.45933545e-01 -5.56222081e-01 -5.57365239e-01
      -5.58508456e-01 -5.58508456e-01 -5.57365239e-01 -5.53935766e-01
      -5.56222081e-01 -5.58508456e-01 -5.58508456e-01 -5.58508456e-01
      -5.58508456e-01 -5.58508456e-01 -5.58508456e-01 -5.58508456e-01
      -5.58508456e-01 -5.58508456e-01 -5.58508456e-01 -5.58508456e-01
      -5.58508456e-01 -5.58508456e-01 -5.58508456e-01 -5.58508456e-01
      -5.58508456e-01 -5.58508456e-01 -4.05323297e-01 -1.01239368e-01
      1.71183240e+00 2.52691460e+00 3.48375010e+00 3.47917747e+00
      2.33714795e+00 1.77699327e+00 2.50633740e+00 1.44090044e+00
      3.70890945e-01 3.24020863e-01 1.65074170e-02 -2.24702016e-01
      -2.93292373e-01 -3.99607450e-01 -3.84746194e-01 -4.80772704e-01
      -4.85345393e-01 -5.27642787e-01 -5.27642787e-01 -5.44790387e-01
      -5.56222081e-01 -5.55078924e-01 -5.52792549e-01 -5.55078924e-01
      -5.55078924e-01 -5.55078924e-01 -5.58508456e-01 -5.58508456e-01
      -5.56222081e-01 -5.58508456e-01 -5.58508456e-01 -5.56222081e-01
      -5.58508456e-01 -5.57365239e-01 -5.56222081e-01 -5.58508456e-01
      -5.55078924e-01 -5.56222081e-01 -5.58508456e-01 -5.58508456e-01
      -5.58508456e-01 -5.58508456e-01 -5.57365239e-01 -5.57365239e-01
      -5.58508456e-01 -5.58508456e-01 -5.58508456e-01 -5.57365239e-01
      -5.58508456e-01 -5.58508456e-01 -5.58508456e-01 -5.44790387e-01
      -5.08208811e-01 -4.77343172e-01 -4.17898208e-01 -1.94979534e-01
      1.34030128e+00 1.80900204e+00 1.85129952e+00 1.75184345e+00
      1.73469591e+00 1.22026813e+00 5.61800778e-01 3.93754393e-01
      5.09214818e-01 2.87439346e-01 3.35452586e-01 1.34254202e-01
      8.28114301e-02 1.12533920e-01 1.76505893e-02 4.85162511e-02
      -1.78334652e-03 4.05140407e-02 -1.20673306e-01 -1.11527920e-01
      -1.40107244e-01 -6.69441894e-02 -1.84690967e-01 -2.78431118e-01
      -3.80173504e-01 -3.47021490e-01 -3.87032539e-01 -4.01893795e-01
      -3.90462041e-01 -4.09895986e-01 -4.13325518e-01 -4.16755021e-01
      -3.83603007e-01 -3.65312248e-01 -3.92748386e-01 -3.85889351e-01
      -4.39618468e-01 -4.61338758e-01 -4.81915861e-01 -4.71627325e-01
      -4.97920275e-01 -4.81915861e-01</_>
    <_>
      -1.34667739e-01 -3.88686299e-01 -2.13021725e-01 2.95015395e-01
      3.88034177e+00 6.31437016e+00 3.13724279e+00 9.29429889e-01
      1.47285259e+00 -3.68465900e-01 -3.67202133e-01 -1.70053408e-01
      -5.59295774e-01 -2.92639464e-01 -1.77636057e-01 -5.65614641e-01
      -2.64836460e-01 6.84257746e-01 -8.28530118e-02 9.52177823e-01
      1.37806952e+00 2.12870076e-01 -2.29450777e-01 2.44464427e-01
      -5.92153907e-01 -5.64350843e-01 -4.78414237e-01 -6.09846711e-01
      -6.17429376e-01 -5.63087106e-01 -5.88362575e-01 -6.01000309e-01
      -6.09846711e-01 -5.83307445e-01 -6.17429376e-01 -6.17429376e-01
      -6.17429376e-01 -6.17429376e-01 -6.17429376e-01 -6.17429376e-01
      -6.17429376e-01 -6.17429376e-01 -6.17429376e-01 -6.17429376e-01
      -6.17429376e-01 -6.17429376e-01 -6.17429376e-01 -6.17429376e-01
      -6.17429376e-01 -6.17429376e-01 -4.49903216e-03 1.39955366e+00
      1.36795938e+00 1.49686432e+00 2.19952250e+00 2.49398184e+00
      2.00363755e+00 2.19446754e+00 1.85451233e+00 8.32119286e-01
      1.31488085e+00 1.34647512e+00 6.47608280e-01 3.17763299e-01
      2.20452726e-01 -2.85107363e-02 -1.70053408e-01 -3.91213834e-01
      -4.53138769e-01 -4.94843304e-01 -4.98634636e-01 -5.28965175e-01
      -5.68142176e-01 -5.73197305e-01 -6.02264106e-01 -6.01000309e-01
      -6.09846711e-01 -6.06055379e-01 -6.11110508e-01 -6.09846711e-01
      -6.17429376e-01 -6.14901841e-01 -6.14901841e-01 -6.16165578e-01
      -6.17429376e-01 -6.14901841e-01 -6.16165578e-01 -6.17429376e-01
      -6.17429376e-01 -6.17429376e-01 -6.17429376e-01 -6.17429376e-01
      -6.17429376e-01 -6.17429376e-01 -6.17429376e-01 -6.17429376e-01
      -6.17429376e-01 -6.17429376e-01 -6.17429376e-01 -6.17429376e-01
      -6.17429376e-01 -6.17429376e-01 -6.17429376e-01 -6.17429376e-01
      -5.68142176e-01 -2.61045128e-01 5.56616604e-01 4.34030503e-01
      1.72307980e+00 1.53856885e+00 1.79005980e+00 1.54362392e+00
      1.39197099e+00 1.10762203e+00 8.75087619e-01 7.71458149e-01
      5.62935472e-01 4.85794730e-02 1.16823263e-01 5.11070192e-02
      5.11070192e-02 -1.71367712e-02 -9.16994289e-02 -1.13183588e-01
      -6.89515024e-02 -3.60933803e-02 -1.70053408e-01 -1.90273792e-01
      -2.38297194e-01 -2.83793062e-01 -2.00383991e-01 -1.83954924e-01
      -9.29632038e-02 -1.67525858e-01 -3.69729698e-01 -4.43028569e-01
      -4.31654602e-01 -4.59457636e-01 -4.65776503e-01 -4.88524437e-01
      -4.64512736e-01 -4.27863300e-01 -4.94843304e-01 -4.36709702e-01
      -4.44292337e-01 -4.24071968e-01 -4.24071968e-01 -4.88524437e-01
      -5.69405973e-01 -5.76988578e-01</_>
    <_>
      -4.14482147e-01 -2.71460235e-01 3.92020717e-02 2.16174107e-02
      2.03564692e+00 5.16923332e+00 4.50687790e+00 3.40725040e+00
      3.67922640e+00 3.53381306e-01 2.04451010e-02 8.83265734e-01
      -9.67859626e-02 -1.94087744e-01 -3.42971206e-01 -2.98423380e-01
      -1.94134619e-02 -3.95725161e-01 -5.41091681e-01 -4.88337725e-01
      -5.19990087e-01 -5.46953261e-01 -5.72744071e-01 -5.61020970e-01
      -5.72744071e-01 -5.72744071e-01 -5.58676362e-01 -5.72744071e-01
      -5.72744071e-01 -5.64537883e-01 -5.71571767e-01 -5.70399463e-01
      -5.72744071e-01 -5.61020970e-01 -5.71571767e-01 -5.72744071e-01
      -5.72744071e-01 -5.72744071e-01 -5.72744071e-01 -5.72744071e-01
      -5.72744071e-01 -5.72744071e-01 -5.72744071e-01 -5.72744071e-01
      -5.72744071e-01 -5.72744071e-01 -5.72744071e-01 -5.72744071e-01
      -5.72744071e-01 -5.72744071e-01 -2.89044917e-01 5.84326506e-01
      2.23962903e+00 1.95592988e+00 2.48464203e+00 2.38968492e+00
      2.12825942e+00 1.96061909e+00 2.54677439e+00 1.61830437e+00
      8.24650168e-01 5.67914188e-01 1.71673179e-01 -1.43678382e-01
      -2.83183366e-01 -2.96078771e-01 -2.52703279e-01 -4.05103654e-01
      -4.53168392e-01 -4.46134537e-01 -5.03577769e-01 -5.02405465e-01
      -5.04750073e-01 -5.32885492e-01 -5.61020970e-01 -5.56331754e-01
      -5.71571767e-01 -5.71571767e-01 -5.72744071e-01 -5.72744071e-01
      -5.72744071e-01 -5.71571767e-01 -5.72744071e-01 -5.72744071e-01
      -5.72744071e-01 -5.72744071e-01 -5.72744071e-01 -5.72744071e-01
      -5.72744071e-01 -5.72744071e-01 -5.72744071e-01 -5.72744071e-01
      -5.72744071e-01 -5.72744071e-01 -5.72744071e-01 -5.72744071e-01
      -5.72744071e-01 -5.72744071e-01 -5.72744071e-01 -5.72744071e-01
      -5.72744071e-01 -5.72744071e-01 -5.72744071e-01 -5.72744071e-01
      -5.70399463e-01 -5.14128566e-01 -1.68296918e-01 3.53381306e-01
      1.15055251e+00 8.87954950e-01 1.15875876e+00 1.07200778e+00
      1.10717702e+00 8.28167140e-01 5.51501811e-01 3.75655234e-01
      3.63932103e-01 1.72845483e-01 1.16574571e-01 9.19560492e-02
      1.07196085e-01 1.13057643e-01 1.18919194e-01 2.66630322e-01
      2.49045670e-01 4.26064581e-01 1.16574571e-01 6.85098395e-02
      5.79590388e-02 -7.68566802e-02 -1.90570816e-01 -2.02293918e-01
      -1.53056875e-01 -3.00111226e-03 -7.21674412e-02 -1.68296918e-01
      -2.59737134e-01 -2.38635555e-01 -2.49186337e-01 -3.50005060e-01
      -4.16826755e-01 -4.01586711e-01 -4.14482147e-01 -4.14482147e-01
      -3.46488118e-01 -3.51177365e-01 -4.16826755e-01 -4.21516001e-01
      -5.01233101e-01 -5.62193274e-01</_>
    <_>
      -4.68386203e-01 -4.71286058e-01 -4.54853475e-01 -2.75061846e-01
      4.51837629e-01 2.71566558e+00 6.29893208e+00 6.17230463e+00
      2.98631954e+00 7.53423572e-01 -5.56387417e-02 1.15453295e-01
      -3.99756044e-01 -4.35521066e-01 -4.53886867e-01 -4.66452956e-01
      -4.42287415e-01 -4.63553071e-01 -4.70319420e-01 -4.71286058e-01
      -4.72252667e-01 -4.72252667e-01 -4.72252667e-01 -4.72252667e-01
      -4.72252667e-01 -4.72252667e-01 -4.71286058e-01 -4.72252667e-01
      -4.72252667e-01 -4.71286058e-01 -4.72252667e-01 -4.72252667e-01
      -4.72252667e-01 -4.72252667e-01 -4.72252667e-01 -4.72252667e-01
      -4.72252667e-01 -4.72252667e-01 -4.72252667e-01 -4.72252667e-01
      -4.72252667e-01 -4.72252667e-01 -4.72252667e-01 -4.72252667e-01
      -4.72252667e-01 -4.72252667e-01 -4.72252667e-01 -4.72252667e-01
      -4.72252667e-01 -4.72252667e-01 -4.67419565e-01 -4.33587819e-01
      4.99202102e-01 1.84957254e+00 1.33146334e+00 1.88920403e+00
      2.23718786e+00 2.89835691e+00 3.30433798e+00 1.42232573e+00
      7.58256674e-01 4.00606692e-01 1.03853837e-01 -8.56040120e-02
      -2.39296854e-01 -2.42196724e-01 -2.53796190e-01 -3.58191311e-01
      -3.62057805e-01 -4.00722682e-01 -4.17155236e-01 -4.25854832e-01
      -4.29721326e-01 -4.39387530e-01 -4.53886867e-01 -4.44220662e-01
      -4.57753360e-01 -4.55820113e-01 -4.64519709e-01 -4.60653216e-01
      -4.69352812e-01 -4.69352812e-01 -4.68386203e-01 -4.69352812e-01
      -4.72252667e-01 -4.66452956e-01 -4.71286058e-01 -4.71286058e-01
      -4.69352812e-01 -4.67419565e-01 -4.69352812e-01 -4.71286058e-01
      -4.72252667e-01 -4.69352812e-01 -4.72252667e-01 -4.70319420e-01
      -4.71286058e-01 -4.72252667e-01 -4.72252667e-01 -4.67419565e-01
      -4.72252667e-01 -4.72252667e-01 -4.61619824e-01 -4.34554428e-01
      -3.38858873e-01 -1.89032525e-01 8.74212682e-02 1.32852480e-01
      2.07282349e-01 6.61555901e-02 9.90207270e-02 2.36242358e-02
      -1.50792743e-03 6.32557273e-02 9.03211311e-02 2.01482624e-01
      2.78812349e-01 2.44013980e-01 2.05349103e-01 2.71079391e-01
      2.82678843e-01 3.38742912e-01 3.07810992e-01 3.26176822e-01
      2.48847082e-01 3.89973849e-01 1.59917891e-01 2.11148843e-01
      1.70550734e-01 1.01920590e-01 1.18353158e-01 6.03558570e-02
      -2.47068480e-02 2.84573436e-02 -2.47068480e-02 -7.98042789e-02
      -7.49711767e-02 -1.32001847e-01 -9.91367176e-02 -7.59377927e-02
      -8.46373886e-02 -2.37402264e-02 -1.13636039e-01 -2.17064559e-01
      -1.88065901e-01 -1.87099293e-01 -1.94832265e-01 -2.68295497e-01
      -3.45625252e-01 -2.11264834e-01</_>
    <_>
      -5.33278622e-02 -3.93666387e-01 4.33870442e-02 8.44039559e-01
      2.03032732e+00 6.19151688e+00 4.72610235e+00 2.39392638e+00
      1.47084999e+00 2.66198605e-01 -1.23109505e-01 1.98865443e-01
      -3.04296911e-01 -2.39412233e-01 -1.50042772e-01 -3.77751291e-01
      -1.64733633e-01 9.23566148e-02 -3.06745410e-01 4.33870442e-02
      -1.17037250e-02 -3.71630073e-01 -4.07133013e-01 -3.39799851e-01
      -5.44247806e-01 -5.03847957e-01 -5.07520616e-01 -5.85871935e-01
      -5.88320434e-01 -5.35678148e-01 -5.82199216e-01 -5.72405338e-01
      -5.52817523e-01 -5.45472085e-01 -5.67508399e-01 -5.98114371e-01
      -5.98114371e-01 -5.98114371e-01 -5.98114371e-01 -5.98114371e-01
      -5.98114371e-01 -5.98114371e-01 -5.98114371e-01 -5.98114371e-01
      -5.98114371e-01 -5.98114371e-01 -5.98114371e-01 -5.98114371e-01
      -5.98114371e-01 -5.98114371e-01 8.86838958e-02 6.66524827e-01
      1.65571010e+00 2.81996179e+00 3.11377907e+00 3.38433599e+00
      2.76242256e+00 1.92381859e+00 1.92259431e+00 1.44758952e+00
      6.45712793e-01 1.87847286e-01 1.76780187e-02 -1.43921569e-01
      -3.18987787e-01 -3.42248350e-01 -4.04684544e-01 -5.17314553e-01
      -5.23435771e-01 -5.38126647e-01 -5.74853778e-01 -5.87096214e-01
      -5.84647715e-01 -5.89544654e-01 -5.94441652e-01 -5.93217373e-01
      -5.87096214e-01 -5.90768933e-01 -5.95665872e-01 -5.94441652e-01
      -5.98114371e-01 -5.93217373e-01 -5.98114371e-01 -5.96890092e-01
      -5.98114371e-01 -5.98114371e-01 -5.98114371e-01 -5.98114371e-01
      -5.98114371e-01 -5.98114371e-01 -5.98114371e-01 -5.98114371e-01
      -5.98114371e-01 -5.98114371e-01 -5.98114371e-01 -5.98114371e-01
      -5.98114371e-01 -5.98114371e-01 -5.98114371e-01 -5.98114371e-01
      -5.98114371e-01 -5.98114371e-01 -5.82199216e-01 -4.90381300e-01
      -2.39412233e-01 1.02150530e-01 2.28247181e-01 5.14719188e-01
      7.44876146e-01 5.50222099e-01 5.63688755e-01 3.64137739e-01
      3.53119582e-01 2.72319794e-01 2.49059245e-01 2.03762397e-01
      3.81277084e-01 1.42550424e-01 5.93021549e-02 5.93021549e-02
      2.99204122e-02 1.86623037e-01 2.47835010e-01 2.27022946e-01
      1.36429235e-01 2.60077417e-01 1.13168687e-01 9.60293338e-02
      -1.17037250e-02 2.37992145e-02 4.70597632e-02 4.21138620e-03
      2.99204122e-02 1.04599006e-01 -4.59824242e-02 6.65986491e-03
      -6.18975349e-02 -1.07194394e-01 -1.23109505e-01 -1.18212543e-01
      -1.43921569e-01 -1.81872994e-01 -2.93278754e-01 -3.56939197e-01
      -3.34902912e-01 -3.97339106e-01 -3.70405853e-01 -4.65896517e-01
      -4.34066296e-01 -3.47145289e-01</_>
    <_>
      -5.56267321e-01 -5.76579511e-01 -5.55072486e-01 -4.43952829e-01
      4.18717921e-01 2.26473761e+00 5.18730354e+00 3.69376016e+00
      3.74513793e+00 1.76051736e+00 3.76898706e-01 1.72347748e+00
      2.89675772e-01 4.28276598e-01 3.69729698e-01 1.00844093e-02
      1.70192271e-01 -6.04108460e-02 -4.27225143e-01 -3.81821424e-01
      -5.44318974e-01 -5.76579511e-01 -5.78969181e-01 -5.82553685e-01
      -5.83748519e-01 -5.76579511e-01 -5.80164015e-01 -5.83748519e-01
      -5.83748519e-01 -5.80164015e-01 -5.82553685e-01 -5.81358850e-01
      -5.81358850e-01 -5.81358850e-01 -5.83748519e-01 -5.83748519e-01
      -5.83748519e-01 -5.83748519e-01 -5.83748519e-01 -5.83748519e-01
      -5.83748519e-01 -5.83748519e-01 -5.83748519e-01 -5.83748519e-01
      -5.83748519e-01 -5.83748519e-01 -5.83748519e-01 -5.83748519e-01
      -5.83748519e-01 -5.83748519e-01 -4.59485680e-01 2.27544352e-01
      1.88119566e+00 2.79404950e+00 2.79165983e+00 2.66022801e+00
      2.02577066e+00 2.19065785e+00 1.90389752e+00 1.22762108e+00
      1.21686757e+00 1.03405786e+00 4.62926805e-01 -1.26174530e-02
      -2.55168915e-01 -3.18495184e-01 -3.53145391e-01 -5.16837776e-01
      -5.28786123e-01 -5.33565462e-01 -5.69410503e-01 -5.74189842e-01
      -5.77774346e-01 -5.72995007e-01 -5.80164015e-01 -5.74189842e-01
      -5.83748519e-01 -5.81358850e-01 -5.80164015e-01 -5.81358850e-01
      -5.81358850e-01 -5.82553685e-01 -5.82553685e-01 -5.82553685e-01
      -5.82553685e-01 -5.83748519e-01 -5.81358850e-01 -5.83748519e-01
      -5.82553685e-01 -5.83748519e-01 -5.82553685e-01 -5.83748519e-01
      -5.83748519e-01 -5.83748519e-01 -5.83748519e-01 -5.83748519e-01
      -5.83748519e-01 -5.83748519e-01 -5.83748519e-01 -5.83748519e-01
      -5.83748519e-01 -5.83748519e-01 -5.83748519e-01 -5.78969181e-01
      -5.28786123e-01 -4.65459853e-01 -3.74652416e-01 -3.53193134e-02
      7.40128517e-01 1.32320786e+00 1.64103389e+00 1.76888120e+00
      1.26705062e+00 1.16429484e+00 1.06512356e+00 7.16231823e-01
      4.27081764e-01 8.89435112e-02 6.50468096e-02 9.96970236e-02
      4.35397848e-02 -1.38122877e-02 -2.45658010e-02 -1.73967928e-02
      -6.87746927e-02 1.96430869e-02 -1.10593908e-01 -6.39953539e-02
      -6.63850233e-02 -1.10593908e-01 -1.23737097e-01 -1.53607965e-01
      -1.23737097e-01 -2.45658010e-02 -1.39269948e-01 -1.34490609e-01
      -2.31272236e-01 -2.99377829e-01 -3.86600763e-01 -4.11692291e-01
      -4.30809647e-01 -3.32833201e-01 -4.08107787e-01 -3.25664192e-01
      -3.63898903e-01 -3.92574936e-01 -4.82187539e-01 -4.95330721e-01
      -5.04889429e-01 -4.54706341e-01</_>
    <_>
      -4.57438976e-01 -4.91901994e-01 -5.68065196e-02 5.73579311e-01
      2.23929119e+00 4.23383760e+00 2.71459365e+00 2.49345589e+00
      1.86450601e+00 1.06036925e+00 7.27226913e-01 1.38633192e+00
      7.65997767e-01 9.02413845e-01 3.89776617e-01 3.71109158e-01
      5.33372462e-01 1.11200638e-01 7.53016770e-02 4.63010520e-01
      7.81161850e-03 -6.11086547e-01 -6.67088926e-01 -6.32625937e-01
      -6.81448519e-01 -6.65652990e-01 -6.72832787e-01 -6.90064311e-01
      -7.00115979e-01 -6.77140653e-01 -6.97244048e-01 -6.84320450e-01
      -6.68524921e-01 -6.57037258e-01 -6.78576589e-01 -7.01551974e-01
      -7.01551974e-01 -7.01551974e-01 -7.01551974e-01 -7.01551974e-01
      -7.01551974e-01 -7.01551974e-01 -7.01551974e-01 -7.01551974e-01
      -7.01551974e-01 -7.01551974e-01 -7.01551974e-01 -7.01551974e-01
      -7.01551974e-01 -7.01551974e-01 -4.40207481e-01 2.11717740e-01
      1.72809005e+00 3.24446225e+00 3.71114898e+00 3.66089034e+00
      3.36939073e+00 3.02045274e+00 2.41304231e+00 1.15945041e+00
      7.15739250e-01 4.50086892e-01 1.14072561e-01 -9.41988546e-03
      -1.94658548e-01 -3.68409544e-01 -3.64101678e-01 -5.14877319e-01
      -5.43596506e-01 -5.86675286e-01 -6.31190002e-01 -6.38369799e-01
      -6.78576589e-01 -6.75704718e-01 -6.97244048e-01 -6.88628316e-01
      -6.94372177e-01 -6.95808113e-01 -6.95808113e-01 -6.94372177e-01
      -7.01551974e-01 -6.92936182e-01 -6.98680043e-01 -6.88628316e-01
      -7.00115979e-01 -6.94372177e-01 -7.01551974e-01 -7.00115979e-01
      -7.00115979e-01 -7.00115979e-01 -6.98680043e-01 -7.00115979e-01
      -6.98680043e-01 -7.01551974e-01 -7.01551974e-01 -7.01551974e-01
      -7.01551974e-01 -7.01551974e-01 -7.01551974e-01 -7.01551974e-01
      -7.01551974e-01 -7.01551974e-01 -6.90064311e-01 -5.04825592e-01
      -2.95175642e-01 -2.01838344e-01 -5.11200912e-03 1.80126652e-01
      2.83515692e-01 2.34693080e-01 3.33774239e-01 3.02183151e-01
      3.96956414e-01 3.86904687e-01 4.75934148e-01 3.98392379e-01
      4.97473508e-01 4.32855368e-01 4.32855368e-01 2.44744793e-01
      1.90178365e-01 2.79207796e-01 1.95922196e-01 2.01666042e-01
      1.26996189e-01 2.86387593e-01 1.81562617e-01 1.75818786e-01
      1.14072561e-01 8.67893472e-02 2.06778385e-03 3.79667506e-02
      6.31825300e-04 9.25331786e-02 -4.38828915e-02 -8.69616494e-02
      -1.18552744e-01 -1.50143832e-01 -2.20505804e-01 -2.29121551e-01
      -2.83687979e-01 -1.87478751e-01 -2.66456485e-01 -2.27685601e-01
      -2.42045179e-01 -3.18150997e-01 -2.98047572e-01 -3.16715032e-01
      -3.42562288e-01 -1.40092120e-01</_>
    <_>
      -4.02471185e-01 -2.19741151e-01 8.42551515e-02 -1.81533962e-01
      1.42396525e-01 2.50293612e+00 2.89663625e+00 3.55031133e+00
      6.32863808e+00 6.65668845e-01 -3.11969966e-02 -3.36887687e-02
      -3.32701534e-01 -4.00810003e-01 -3.98318231e-01 -4.03301775e-01
      -3.77553433e-01 -4.04132366e-01 -4.05793548e-01 -4.05793548e-01
      -4.05793548e-01 -4.05793548e-01 -4.05793548e-01 -4.05793548e-01
      -4.05793548e-01 -4.05793548e-01 -4.05793548e-01 -4.05793548e-01
      -4.05793548e-01 -4.05793548e-01 -4.05793548e-01 -4.05793548e-01
      -4.05793548e-01 -4.05793548e-01 -4.05793548e-01 -4.05793548e-01
      -4.05793548e-01 -4.05793548e-01 -4.05793548e-01 -4.05793548e-01
      -4.05793548e-01 -4.05793548e-01 -4.05793548e-01 -4.05793548e-01
      -4.05793548e-01 -4.05793548e-01 -4.05793548e-01 -4.05793548e-01
      -4.05793548e-01 -4.05793548e-01 -3.96657050e-01 -3.95826459e-01
      5.26926965e-02 1.59510016e+00 3.39914370e+00 5.03789997e+00
      3.21558309e+00 1.26203310e+00 8.16836417e-01 1.42396525e-01
      -1.22562006e-01 -1.71566874e-01 -1.81533962e-01 -2.41336524e-01
      -2.17249379e-01 -2.87849605e-01 -3.01139086e-01 -3.49313349e-01
      -3.73400480e-01 -3.73400480e-01 -3.72569889e-01 -3.83367568e-01
      -3.97487640e-01 -4.05793548e-01 -4.05793548e-01 -4.05793548e-01
      -4.05793548e-01 -4.05793548e-01 -4.05793548e-01 -4.05793548e-01
      -4.05793548e-01 -4.05793548e-01 -4.05793548e-01 -4.05793548e-01
      -4.05793548e-01 -4.05793548e-01 -4.05793548e-01 -4.05793548e-01
      -4.05793548e-01 -4.05793548e-01 -4.05793548e-01 -4.05793548e-01
      -4.05793548e-01 -4.05793548e-01 -4.05793548e-01 -4.05793548e-01
      -4.05793548e-01 -4.05793548e-01 -4.05793548e-01 -4.05793548e-01
      -4.05793548e-01 -4.05793548e-01 -4.05793548e-01 -4.05793548e-01
      -4.05793548e-01 -3.94995868e-01 -2.85357833e-01 -2.05621108e-01
      -4.53170426e-02 1.29107073e-01 6.41581714e-01 1.10671258e+00
      2.11421943e+00 1.84427738e+00 1.59343898e+00 1.28612030e+00
      6.95570111e-01 2.64493406e-01 1.75620168e-01 1.68144837e-01
      1.57347158e-01 8.01021978e-02 -7.18959570e-02 -9.60163027e-03
      -8.60159993e-02 -5.77759072e-02 -1.55785650e-01 -1.90670475e-01
      -1.91501066e-01 -1.68244511e-01 -1.84025735e-01 -2.15588197e-01
      -1.67413920e-01 -1.91501066e-01 -2.67084837e-01 -3.07783812e-01
      -3.13597947e-01 -3.05292040e-01 -3.20242673e-01 -3.22734445e-01
      -3.43499213e-01 -3.59280437e-01 -3.79214615e-01 -3.71739298e-01
      -3.81706387e-01 -3.96657050e-01 -3.90842915e-01 -3.88351113e-01
      -3.97487640e-01 -3.60941619e-01</_>
    <_>
      1.49796875e-02 5.53043067e-01 -2.80653816e-02 -3.38047221e-02
      1.25754738e+00 3.42845345e+00 1.25898218e+00 1.53447056e+00
      2.42837310e+00 5.96088111e-01 -1.71548948e-01 -1.65809602e-01
      -4.81473446e-01 -3.88209134e-01 -5.31692684e-01 -6.24957025e-01
      -5.94825447e-01 -4.26949680e-01 -5.05865633e-01 -9.41251777e-03
      1.37950838e+00 4.50314522e+00 3.27349138e+00 3.11990649e-01
      -2.97814488e-01 -3.22206676e-01 -5.20214021e-01 -6.16347969e-01
      -6.30696356e-01 -6.01999640e-01 -6.46479547e-01 -6.01999640e-01
      -6.12043500e-01 -6.16347969e-01 -5.96260309e-01 -7.01003313e-01
      -7.01003313e-01 -7.01003313e-01 -7.01003313e-01 -7.01003313e-01
      -7.01003313e-01 -7.01003313e-01 -7.01003313e-01 -7.01003313e-01
      -7.01003313e-01 -7.01003313e-01 -7.01003313e-01 -7.01003313e-01
      -7.01003313e-01 -7.01003313e-01 -2.07419828e-01 3.06251317e-01
      1.03227818e+00 1.72960818e+00 2.64933777e+00 3.79720640e+00
      3.06113553e+00 2.99656796e+00 2.85738897e+00 1.53447056e+00
      7.59659350e-01 5.88913918e-01 5.05693495e-01 3.24904174e-01
      -1.37112886e-01 -3.56642753e-01 -3.37989867e-01 -4.61385727e-01
      -5.00126302e-01 -4.92952138e-01 -5.20214021e-01 -5.00126302e-01
      -5.44606209e-01 -5.44606209e-01 -5.64693928e-01 -5.73302925e-01
      -6.13478303e-01 -6.17782831e-01 -6.36435688e-01 -6.43609881e-01
      -6.57958210e-01 -6.70871735e-01 -6.79480731e-01 -6.83785260e-01
      -6.89524591e-01 -7.01003313e-01 -6.98133647e-01 -7.01003313e-01
      -7.01003313e-01 -6.99568450e-01 -6.99568450e-01 -7.01003313e-01
      -7.01003313e-01 -7.01003313e-01 -7.01003313e-01 -7.01003313e-01
      -7.01003313e-01 -7.01003313e-01 -7.01003313e-01 -7.01003313e-01
      -7.01003313e-01 -7.01003313e-01 -6.96698785e-01 -6.82350457e-01
      -5.56084871e-01 -2.07419828e-01 1.51289076e-01 6.60655737e-01
      1.73821723e+00 7.49615550e-01 8.12748313e-01 6.72134399e-01
      5.47303677e-01 3.69384080e-01 5.38694680e-01 5.44434011e-01
      6.46307349e-01 2.71815270e-01 2.18726352e-01 2.21596017e-01
      2.99077153e-01 2.02943161e-01 1.22592360e-01 1.36940718e-01
      1.78493578e-02 1.05374329e-01 -8.25891346e-02 -1.31373540e-01
      -2.04550162e-01 -2.66248107e-01 -2.74857104e-01 -2.59073913e-01
      -2.69117773e-01 -2.83466130e-01 -2.76291937e-01 -2.37551376e-01
      -3.13597679e-01 -2.76291937e-01 -3.13597679e-01 -2.24637866e-01
      -1.88766971e-01 -1.17025189e-01 -2.64813274e-01 -1.93071485e-01
      -1.97375983e-01 -2.14594007e-01 -3.17902178e-01 -3.43729228e-01
      -2.80596465e-01 4.79809083e-02</_>
    <_>
      -4.34282720e-01 -4.37039703e-01 -4.02117699e-01 -1.91666678e-01
      2.43939400e-01 4.03113890e+00 6.82673740e+00 3.58082891e+00
      2.83551979e+00 6.28081501e-01 -1.34688661e-01 2.01665401e-01
      -3.29516709e-01 -3.93846720e-01 -4.30606723e-01 -4.37958717e-01
      -4.15902704e-01 -4.28768724e-01 -4.34282720e-01 -4.43472713e-01
      -4.24173713e-01 -4.40715700e-01 -4.48986709e-01 -4.48986709e-01
      -4.48986709e-01 -4.48986709e-01 -4.48986709e-01 -4.48067725e-01
      -4.48986709e-01 -4.48986709e-01 -4.48986709e-01 -4.48986709e-01
      -4.48067725e-01 -4.48067725e-01 -4.48986709e-01 -4.48986709e-01
      -4.48986709e-01 -4.48986709e-01 -4.48986709e-01 -4.48986709e-01
      -4.48986709e-01 -4.48986709e-01 -4.48986709e-01 -4.48986709e-01
      -4.48986709e-01 -4.48986709e-01 -4.48986709e-01 -4.48986709e-01
      -4.48986709e-01 -4.48986709e-01 -3.89251709e-01 -8.69006515e-02
      9.53407466e-01 2.32823181e+00 2.90260673e+00 3.88226104e+00
      2.70685983e+00 1.97809267e+00 1.28057158e+00 5.63751459e-01
      1.86961398e-01 -3.26796435e-02 -1.38364658e-01 -2.94594675e-01
      -3.50653708e-01 -3.76385689e-01 -4.12226707e-01 -4.30606723e-01
      -4.23254699e-01 -4.28768724e-01 -4.37039703e-01 -4.38877702e-01
      -4.37958717e-01 -4.40715700e-01 -4.41634715e-01 -4.47148710e-01
      -4.48986709e-01 -4.48986709e-01 -4.48986709e-01 -4.48986709e-01
      -4.48986709e-01 -4.48986709e-01 -4.48986709e-01 -4.48986709e-01
      -4.48986709e-01 -4.48986709e-01 -4.48986709e-01 -4.48986709e-01
      -4.48986709e-01 -4.48986709e-01 -4.48986709e-01 -4.48986709e-01
      -4.48986709e-01 -4.48986709e-01 -4.48986709e-01 -4.48986709e-01
      -4.48986709e-01 -4.48986709e-01 -4.48986709e-01 -4.48986709e-01
      -4.48986709e-01 -4.48986709e-01 -4.48986709e-01 -4.48986709e-01
      -3.69033694e-01 -2.43130684e-01 -1.24616399e-02 3.17459404e-01
      6.03268445e-01 3.26649427e-01 4.32334423e-01 4.89312440e-01
      6.06944442e-01 6.62084460e-01 8.66102517e-01 5.28829455e-01
      6.20729446e-01 4.96664435e-01 5.38019478e-01 4.13035423e-01
      3.94655436e-01 2.95403421e-01 2.70590395e-01 2.61400402e-01
      2.03503400e-01 2.04422399e-01 7.02483729e-02 4.45163697e-02
      8.77093747e-02 -2.44086422e-02 -1.03442654e-01 -2.51401693e-01
      -2.62429684e-01 -2.39454687e-01 -2.95513690e-01 -2.82647699e-01
      -2.87242681e-01 -2.78052688e-01 -3.37787688e-01 -3.24002683e-01
      -3.26759696e-01 -3.30435693e-01 -3.52491707e-01 -3.41463685e-01
      -3.57086688e-01 -3.59843701e-01 -3.58005702e-01 -3.84656698e-01
      -3.80061716e-01 -4.36120719e-01</_>
    <_>
      4.43377733e-01 -4.45894778e-01 1.53681487e-01 6.11971438e-01
      1.11775267e+00 3.87936521e+00 2.26941395e+00 3.55879974e+00
      3.98503304e+00 1.09638155e+00 1.92861721e-01 3.61455441e-01
      -2.64240980e-01 -1.50262117e-01 -2.40495384e-01 -3.77032548e-01
      -9.92090926e-02 -2.79723071e-02 -4.61329401e-01 -1.07520051e-01
      1.52494207e-01 -7.19016567e-02 -4.80325878e-01 -3.49725127e-01
      -5.57499051e-01 -5.44438958e-01 -4.93385971e-01 -5.52749932e-01
      -5.76495528e-01 -5.14756978e-01 -5.71746409e-01 -5.51562667e-01
      -5.68184555e-01 -5.53937197e-01 -5.61060905e-01 -5.80057383e-01
      -5.80057383e-01 -5.80057383e-01 -5.80057383e-01 -5.80057383e-01
      -5.80057383e-01 -5.80057383e-01 -5.80057383e-01 -5.80057383e-01
      -5.80057383e-01 -5.80057383e-01 -5.80057383e-01 -5.80057383e-01
      -5.80057383e-01 -5.80057383e-01 9.24226046e-01 2.46175313e+00
      4.36140060e+00 4.71164846e+00 3.16699743e+00 2.47243881e+00
      1.57841706e+00 9.90713716e-01 1.00852287e+00 9.55047831e-02
      -2.39308104e-01 -2.98672080e-01 -3.85343492e-01 -4.38771099e-01
      -4.86262292e-01 -4.95760530e-01 -5.20693421e-01 -5.36128044e-01
      -5.45626283e-01 -5.59873641e-01 -5.56311786e-01 -5.75308263e-01
      -5.71746409e-01 -5.61060905e-01 -5.74120998e-01 -5.52749932e-01
      -5.75308263e-01 -5.71746409e-01 -5.78870118e-01 -5.74120998e-01
      -5.77682793e-01 -5.72933674e-01 -5.80057383e-01 -5.75308263e-01
      -5.77682793e-01 -5.72933674e-01 -5.80057383e-01 -5.78870118e-01
      -5.80057383e-01 -5.80057383e-01 -5.80057383e-01 -5.78870118e-01
      -5.80057383e-01 -5.80057383e-01 -5.80057383e-01 -5.80057383e-01
      -5.80057383e-01 -5.78870118e-01 -5.80057383e-01 -5.80057383e-01
      -5.80057383e-01 -5.80057383e-01 -5.68184555e-01 -4.03152704e-01
      1.56056046e-01 6.02473199e-01 8.95731330e-01 7.75816083e-01
      7.18826652e-01 4.18444872e-01 4.00635660e-01 4.68310624e-01
      7.69879639e-01 5.57356596e-01 4.55250531e-01 2.62911230e-01
      3.74515533e-01 2.20169157e-01 1.38246849e-01 8.48192647e-02
      1.29935890e-01 2.66425591e-02 1.32310450e-01 1.73865244e-01
      2.39165634e-01 3.67391855e-01 1.78614363e-01 4.92008738e-02
      -1.05145492e-01 -1.33640200e-01 -2.17937067e-01 -2.90361136e-01
      -3.10544878e-01 -2.63053685e-01 -3.16481292e-01 -3.43788713e-01
      -3.17668557e-01 -3.22417676e-01 -2.87986577e-01 -3.05795759e-01
      -2.89173841e-01 -2.57117301e-01 -3.43788713e-01 -3.16481292e-01
      -3.12919438e-01 -3.24792236e-01 -3.15293998e-01 -3.48537832e-01
      -3.79407108e-01 -3.62785190e-01</_>
    <_>
      1.40109169e+00 5.21150112e+00 2.73492742e+00 1.28053355e+00
      6.12333179e-01 2.18215513e+00 5.89637423e+00 2.35914469e+00
      9.00903404e-01 5.57184219e-01 -7.25401342e-02 -1.45644590e-01
      -2.88005888e-01 -2.59790152e-01 -5.45795262e-01 -6.03509307e-01
      -6.13769591e-01 -6.20182276e-01 -6.25312388e-01 -6.26594961e-01
      -6.26594961e-01 -6.26594961e-01 -6.26594961e-01 -6.26594961e-01
      -6.26594961e-01 -6.26594961e-01 -6.26594961e-01 -6.26594961e-01
      -6.26594961e-01 -6.26594961e-01 -6.26594961e-01 -6.26594961e-01
      -6.26594961e-01 -6.24029875e-01 -5.66315830e-01 -6.26594961e-01
      -6.26594961e-01 -6.26594961e-01 -6.26594961e-01 -6.26594961e-01
      -6.26594961e-01 -6.26594961e-01 -6.26594961e-01 -6.26594961e-01
      -6.26594961e-01 -6.26594961e-01 -6.26594961e-01 -6.26594961e-01
      -6.26594961e-01 -6.26594961e-01 -6.24029875e-01 -5.80423713e-01
      -3.98303837e-01 -6.86925352e-02 3.51978719e-01 8.66274953e-01
      7.91887999e-01 6.59786940e-01 8.86795521e-01 5.98225296e-01
      6.88002706e-01 7.20066071e-01 1.09200096e+00 2.25269437e+00
      3.23896337e+00 2.42327142e+00 1.69479203e+00 8.30363989e-01
      2.91699588e-01 1.80119112e-01 1.85197983e-02 -1.03320956e-01
      -1.66165143e-01 -2.82875746e-01 -3.32894593e-01 -4.22672004e-01
      -4.90646303e-01 -4.99624044e-01 -5.39382637e-01 -5.72728515e-01
      -5.99661708e-01 -6.25312388e-01 -6.26594961e-01 -6.26594961e-01
      -6.26594961e-01 -6.26594961e-01 -6.26594961e-01 -6.26594961e-01
      -6.26594961e-01 -6.26594961e-01 -6.26594961e-01 -6.26594961e-01
      -6.26594961e-01 -6.26594961e-01 -6.26594961e-01 -6.26594961e-01
      -6.26594961e-01 -6.26594961e-01 -6.26594961e-01 -6.26594961e-01
      -6.26594961e-01 -6.26594961e-01 -6.26594961e-01 -6.26594961e-01
      -5.08601785e-01 -4.11129177e-01 -2.89288431e-01 -8.53654817e-02
      4.19953018e-01 5.98225296e-01 7.09805787e-01 8.43189359e-01
      1.10482633e+00 1.47932625e+00 8.38059187e-01 5.28968453e-01
      5.12295485e-01 2.00639665e-01 1.14709869e-01 1.68576315e-01
      4.28879485e-02 -2.00075028e-03 2.36499347e-02 9.54718590e-02
      1.28817752e-01 1.94226995e-01 9.67543870e-02 1.31382823e-01
      1.64728701e-01 1.28817752e-01 9.80369225e-02 1.32665351e-01
      7.11037070e-02 -2.38038339e-02 -1.00755893e-01 -1.48209661e-01
      -1.81555554e-01 -2.67485350e-01 -3.41872334e-01 -3.32894593e-01
      -3.11091512e-01 -2.82875746e-01 -3.08526456e-01 -2.81593233e-01
      -3.27764452e-01 -3.62392873e-01 -3.88043582e-01 -4.23954546e-01
      -4.54735368e-01 -4.86798704e-01</_>
    <_>
      2.65968382e-01 4.35986042e+00 3.23413634e+00 2.79948878e+00
      4.19318151e+00 6.17537928e+00 1.51093209e+00 1.29424953e+00
      4.94190365e-01 -3.27716507e-02 -3.46897423e-01 -4.95626360e-01
      -5.61015844e-01 -5.66144407e-01 -5.78965843e-01 -5.96915901e-01
      -6.14865959e-01 -6.07173085e-01 -6.23840988e-01 -6.17430270e-01
      -6.09737396e-01 -6.19994521e-01 -6.26405239e-01 -6.22558832e-01
      -6.26405239e-01 -6.25123143e-01 -6.19994521e-01 -6.26405239e-01
      -6.26405239e-01 -6.18712366e-01 -6.25123143e-01 -6.21276677e-01
      -6.12301648e-01 -6.04608774e-01 -6.04608774e-01 -6.26405239e-01
      -6.26405239e-01 -6.26405239e-01 -6.26405239e-01 -6.26405239e-01
      -6.26405239e-01 -6.26405239e-01 -6.26405239e-01 -6.26405239e-01
      -6.26405239e-01 -6.26405239e-01 -6.26405239e-01 -6.26405239e-01
      -6.26405239e-01 -6.26405239e-01 -5.32808602e-01 -4.54597712e-01
      -1.98168486e-01 6.80101573e-01 1.47374988e+00 2.23278022e+00
      1.65453243e+00 1.53016424e+00 1.72761476e+00 1.49811065e+00
      1.45451772e+00 1.33271384e+00 8.95502090e-01 5.51886916e-01
      2.58275509e-01 3.13407779e-01 3.24947089e-01 6.33893013e-02
      -6.22610077e-02 -7.12360293e-02 -1.03289679e-01 -1.78936303e-01
      -2.23811403e-01 -1.99450642e-01 -2.19964966e-01 -1.52011231e-01
      -3.45615298e-01 -3.23818803e-01 -3.86643946e-01 -4.71265584e-01
      -5.30244291e-01 -5.93069494e-01 -5.81530154e-01 -6.03326619e-01
      -5.98198056e-01 -6.13583803e-01 -6.05890930e-01 -6.12301648e-01
      -6.16148114e-01 -6.08455241e-01 -6.18712366e-01 -6.11019492e-01
      -6.22558832e-01 -6.21276677e-01 -6.21276677e-01 -6.18712366e-01
      -6.23840988e-01 -6.13583803e-01 -6.23840988e-01 -5.30244291e-01
      -6.26405239e-01 -6.26405239e-01 -5.94351590e-01 -4.82804924e-01
      5.44142798e-02 5.78812003e-01 7.16001630e-01 6.17276371e-01
      8.72423470e-01 4.81368899e-01 3.53154302e-01 3.69822204e-01
      4.08286601e-01 4.12133038e-01 3.13407779e-01 3.01868469e-01
      4.07004446e-01 2.56993353e-01 2.98022032e-01 1.87757462e-01
      1.03135832e-01 7.36464709e-02 -3.02073583e-02 3.64642367e-02
      3.51820923e-02 9.41608101e-02 -6.86717406e-02 -9.04682204e-02
      -1.19957581e-01 -1.32779047e-01 -1.53293371e-01 -1.72525570e-01
      -2.17400685e-01 -1.36625484e-01 -2.17400685e-01 -2.32786432e-01
      -2.55865067e-01 -2.71250814e-01 -2.60993659e-01 -2.17400685e-01
      -2.84072280e-01 -2.10989952e-01 -2.49454334e-01 -2.41761461e-01
      -2.53300756e-01 -2.31504291e-01 -2.67404377e-01 -3.10997337e-01
      -3.22536647e-01 3.08279186e-01</_>
    <_>
      3.64339381e-01 1.11863012e+01 1.05492997e+00 5.20331621e-01
      1.77473679e-01 2.53032416e-01 3.53777409e-01 5.44705391e-01
      7.69756675e-01 3.03404897e-01 -1.29636049e-01 -3.35188329e-01
      -3.80686045e-01 -3.92872959e-01 -3.96935254e-01 -3.96935254e-01
      -3.96935254e-01 -3.96935254e-01 -3.96935254e-01 -3.96935254e-01
      -3.96935254e-01 -3.96935254e-01 -3.96935254e-01 -3.96935254e-01
      -3.96935254e-01 -3.96935254e-01 -3.96935254e-01 -3.96935254e-01
      -3.96935254e-01 -3.96935254e-01 -3.96935254e-01 -3.96935254e-01
      -3.96935254e-01 -3.96935254e-01 -3.96935254e-01 -3.96935254e-01
      -3.96935254e-01 -3.96935254e-01 -3.96935254e-01 -3.96935254e-01
      -3.96935254e-01 -3.96935254e-01 -3.96935254e-01 -3.96935254e-01
      -3.96935254e-01 -3.96935254e-01 -3.96935254e-01 -3.96935254e-01
      -3.96935254e-01 -3.96935254e-01 -3.96935254e-01 -3.92872959e-01
      -3.71749014e-01 -3.40875536e-01 -1.43447861e-01 3.76526266e-01
      7.38070786e-01 7.67319322e-01 3.30216080e-01 -1.02824882e-01
      -1.78383619e-01 -1.94632813e-01 -1.50759995e-01 -1.48322612e-01
      -1.45885244e-01 -1.58072129e-01 -8.98255259e-02 -1.09324560e-01
      -7.11389557e-02 1.16994383e-03 2.27033705e-01 4.63459432e-01
      5.65016866e-01 5.52017510e-01 7.55944908e-01 1.02324402e+00
      6.65761888e-01 8.90000701e-01 8.04692447e-01 5.95077872e-01
      4.09837097e-01 5.23548983e-02 -7.35763386e-02 -1.42635405e-01
      -3.25438797e-01 -3.40875536e-01 -3.46562743e-01 -3.64436865e-01
      -3.83123428e-01 -3.78248692e-01 -3.83935899e-01 -3.86373281e-01
      -3.87998194e-01 -3.89623106e-01 -3.89623106e-01 -3.91248018e-01
      -3.92060488e-01 -3.92872959e-01 -3.93685400e-01 -3.60374570e-01
      -3.96935254e-01 -3.96935254e-01 -3.96935254e-01 -3.96122783e-01
      -3.76623750e-01 -3.34375858e-01 -3.00252557e-01 -2.37693176e-01
      -8.90130699e-02 -1.16636693e-01 -6.05769828e-02 -1.02044903e-02
      -1.58917066e-02 -3.45782787e-02 1.16994383e-03 1.16994383e-03
      1.47412673e-01 6.86040893e-02 8.72906595e-02 1.07602149e-01
      3.44027877e-01 5.01645029e-01 8.08754742e-01 8.70501637e-01
      6.43013000e-01 5.78828692e-01 2.02659920e-01 1.79098591e-01
      1.00290015e-01 -8.57957080e-03 -4.18904126e-02 -1.19074076e-01
      -9.22629088e-02 -5.32648489e-02 -1.52384922e-01 -1.63759351e-01
      -1.59697056e-01 -1.89758062e-01 -1.94632813e-01 -2.27131203e-01
      -2.05194786e-01 -1.84883296e-01 -2.02757403e-01 -2.08444625e-01
      -2.12506920e-01 -1.96257740e-01 -1.84070840e-01 -1.36948183e-01
      -1.02824882e-01 1.55702996e+00</_>
    <_>
      -5.24931073e-01 2.27353621e+00 4.06951475e+00 4.11792707e+00
      6.71447992e+00 5.61516619e+00 1.54262853e+00 3.00392490e-02
      -3.14750850e-01 -5.36738992e-01 -5.63897073e-01 -5.69801033e-01
      -5.76885760e-01 -5.76885760e-01 -5.76885760e-01 -5.76885760e-01
      -5.76885760e-01 -5.76885760e-01 -5.76885760e-01 -5.76885760e-01
      -5.76885760e-01 -5.76885760e-01 -5.76885760e-01 -5.76885760e-01
      -5.76885760e-01 -5.76885760e-01 -5.74524164e-01 -5.75704992e-01
      -5.76885760e-01 -5.65077901e-01 -5.65077901e-01 -5.76885760e-01
      -5.67439437e-01 -5.45004487e-01 -5.76885760e-01 -5.76885760e-01
      -5.76885760e-01 -5.76885760e-01 -5.76885760e-01 -5.76885760e-01
      -5.76885760e-01 -5.76885760e-01 -5.76885760e-01 -5.76885760e-01
      -5.76885760e-01 -5.76885760e-01 -5.76885760e-01 -5.76885760e-01
      -5.76885760e-01 -5.76885760e-01 -5.73343396e-01 -5.14303982e-01
      -4.94230598e-01 -4.58806962e-01 -2.65157729e-01 6.31013140e-02
      2.69739211e-01 5.67297757e-01 1.14942622e+00 9.91200626e-01
      9.27438080e-01 9.05003130e-01 9.17991817e-01 6.06263757e-01
      3.21693867e-01 1.43394887e-01 2.34315559e-01 -2.66385730e-02
      -4.55311798e-02 -7.74124563e-02 -4.08080295e-02 -2.07346343e-02
      -3.60848755e-02 -6.32430017e-02 2.89812595e-01 9.41607535e-01
      6.55856848e-01 3.76010120e-01 1.04428887e-01 -3.84464525e-02
      -9.27627012e-02 -8.09548199e-02 -8.09548199e-02 1.38671741e-01
      -9.98474285e-02 -8.21356103e-02 -2.37999618e-01 -3.30101073e-01
      -3.80874962e-01 -3.99767578e-01 -4.82422739e-01 -4.95411396e-01
      -4.93049830e-01 -5.02496123e-01 -5.39100528e-01 -5.35558164e-01
      -5.43823719e-01 -5.40281355e-01 -5.66258669e-01 -4.64710921e-01
      -5.76885760e-01 -5.76885760e-01 -5.76885760e-01 -5.73343396e-01
      -5.23750305e-01 -4.38733578e-01 -7.62316659e-02 3.12200375e-02
      2.49665812e-01 2.41353083e-02 -3.13617252e-02 -3.72656658e-02
      -1.62429184e-01 -1.81321800e-01 -2.32095674e-01 -2.25010946e-01
      -1.91948891e-01 -2.82869548e-01 -2.39180401e-01 -2.33276471e-01
      -1.91948891e-01 -2.04937562e-01 -1.61248401e-01 -1.29367128e-01
      -1.25824764e-01 -7.38700926e-02 -1.14016883e-01 -8.09548199e-02
      9.14402232e-02 1.85903266e-01 3.19332302e-01 3.73648554e-01
      4.03168231e-01 5.88551939e-01 3.94902736e-01 3.79552484e-01
      4.38591897e-01 4.79919463e-01 5.89732766e-01 7.98732221e-01
      8.95556808e-01 8.96737635e-01 1.64649069e-01 -5.14351204e-02
      -9.74858478e-02 -1.52982891e-01 -2.29734108e-01 -2.63976961e-01
      -2.58073002e-01 -1.01075424e-02</_>
    <_>
      -5.09460092e-01 6.49059153e+00 2.00384474e+00 1.05454040e+00
      2.01988029e+00 7.31909466e+00 2.46032333e+00 9.85053062e-01
      -4.31420386e-01 -5.16943336e-01 -5.12667179e-01 -5.16943336e-01
      -5.21219492e-01 -5.22288501e-01 -5.22288501e-01 -5.22288501e-01
      -5.22288501e-01 -5.22288501e-01 -5.22288501e-01 -5.22288501e-01
      -5.22288501e-01 -5.22288501e-01 -5.22288501e-01 -5.22288501e-01
      -5.22288501e-01 -5.22288501e-01 -5.22288501e-01 -5.22288501e-01
      -5.22288501e-01 -5.22288501e-01 -5.22288501e-01 -5.22288501e-01
      -5.22288501e-01 -5.22288501e-01 -5.22288501e-01 -5.22288501e-01
      -5.22288501e-01 -5.22288501e-01 -5.22288501e-01 -5.22288501e-01
      -5.22288501e-01 -5.22288501e-01 -5.22288501e-01 -5.22288501e-01
      -5.22288501e-01 -5.22288501e-01 -5.22288501e-01 -5.22288501e-01
      -5.22288501e-01 -5.22288501e-01 -5.22288501e-01 -5.21219492e-01
      -5.20150423e-01 -5.15874267e-01 -5.07322013e-01 -4.80596066e-01
      -4.06832546e-01 -1.31021112e-01 2.29244202e-01 7.58417308e-01
      2.48384237e+00 2.65595722e+00 1.05347145e+00 7.35967517e-01
      4.50534761e-01 3.42562079e-01 4.89020079e-01 2.34589383e-01
      1.53342605e-01 4.64432240e-01 9.91467297e-01 6.08752191e-01
      2.53832042e-01 1.66171044e-01 -2.73673097e-03 1.90758884e-01
      -4.87053022e-02 -1.06433280e-01 -1.12847500e-01 -1.50263771e-01
      -2.44338989e-01 -2.58236468e-01 -2.94583708e-01 -3.24516743e-01
      -3.86520863e-01 -4.18591946e-01 -4.17522907e-01 -4.16453868e-01
      -4.46386904e-01 -4.49594021e-01 -4.51732099e-01 -4.39972699e-01
      -4.63491499e-01 -4.75250900e-01 -4.61353421e-01 -4.62422460e-01
      -4.74181861e-01 -4.69905704e-01 -4.91286457e-01 -3.89727980e-01
      -5.22288501e-01 -5.22288501e-01 -5.18012345e-01 -5.04114866e-01
      -5.09460092e-01 -4.59215343e-01 -3.74761462e-01 -3.02066982e-01
      -1.78058729e-01 -1.32090151e-01 -1.02199866e-02 2.61272565e-02
      2.05725402e-01 1.14857294e-01 5.07150963e-02 9.02694538e-02
      1.68309122e-01 8.27861950e-02 1.26616687e-01 1.13788255e-01
      7.20958263e-02 1.13788255e-01 1.65102005e-01 2.31382281e-01
      1.51204541e-01 2.82696038e-01 1.62963942e-01 1.80068523e-01
      7.10267946e-02 1.21271513e-01 1.46928385e-01 1.87551782e-01
      2.52763003e-01 3.19043279e-01 3.25457484e-01 2.48486862e-01
      2.61315286e-01 2.10001543e-01 1.18064404e-01 5.39222062e-02
      -5.51195219e-02 4.74652508e-03 -1.18192680e-01 -1.26744971e-01
      -1.64161250e-01 -2.10129827e-01 -1.96232349e-01 -1.93025246e-01
      -1.70575470e-01 6.07683122e-01</_>
    <_>
      -4.98846978e-01 -4.09759313e-01 2.97667217e+00 7.20668697e+00
      4.66053915e+00 3.46390486e+00 1.67115271e+00 1.77233875e+00
      1.15202463e+00 -5.06545901e-01 -5.37341654e-01 -5.37341654e-01
      -5.37341654e-01 -5.37341654e-01 -5.37341654e-01 -5.37341654e-01
      -5.37341654e-01 -5.37341654e-01 -5.37341654e-01 -5.37341654e-01
      -5.37341654e-01 -5.37341654e-01 -5.37341654e-01 -5.37341654e-01
      -5.37341654e-01 -5.37341654e-01 -5.37341654e-01 -5.37341654e-01
      -5.37341654e-01 -5.37341654e-01 -5.37341654e-01 -5.37341654e-01
      -5.37341654e-01 -5.37341654e-01 -5.31842411e-01 -5.37341654e-01
      -5.37341654e-01 -5.37341654e-01 -5.37341654e-01 -5.37341654e-01
      -5.37341654e-01 -5.37341654e-01 -5.37341654e-01 -5.37341654e-01
      -5.37341654e-01 -5.37341654e-01 -5.37341654e-01 -5.37341654e-01
      -5.37341654e-01 -5.37341654e-01 -5.31842411e-01 -3.99860680e-01
      2.65547276e-01 -6.11075424e-02 -1.32597655e-01 1.65461108e-01
      3.29338431e-01 7.12085485e-01 2.09129453e+00 2.18368196e+00
      1.96041274e+00 1.98020995e+00 1.86802554e+00 1.25870979e+00
      9.06758547e-01 6.28497064e-01 5.40509224e-01 1.98456556e-01
      8.18287116e-03 -2.59124134e-02 -1.54594615e-01 -1.36997044e-01
      -1.97488680e-01 -2.09587008e-01 -2.50281364e-01 -3.61366004e-01
      -4.70250934e-01 -4.91148055e-01 -5.12045145e-01 -5.16444564e-01
      -5.24143517e-01 -5.19744098e-01 -5.29642701e-01 -5.32942295e-01
      -5.31842411e-01 -5.34042120e-01 -5.34042120e-01 -5.29642701e-01
      -5.28542876e-01 -5.35141945e-01 -5.35141945e-01 -5.32942295e-01
      -5.32942295e-01 -5.34042120e-01 -5.37341654e-01 -5.36241829e-01
      -5.34042120e-01 -5.34042120e-01 -5.37341654e-01 -5.31842411e-01
      -5.37341654e-01 -5.37341654e-01 -5.37341654e-01 -5.31842411e-01
      -4.92247909e-01 -4.03160214e-01 -3.48167837e-01 -1.68892637e-01
      2.43550315e-01 2.79845297e-01 3.89830083e-01 2.90843755e-01
      3.72232497e-01 3.73332351e-01 3.59034330e-01 3.02942097e-01
      3.89830083e-01 3.86530519e-01 3.34837675e-01 3.78831595e-01
      3.00742388e-01 2.96342999e-01 3.59034330e-01 2.61147887e-01
      2.44650155e-01 3.56834650e-01 1.56662330e-01 3.78347933e-03
      7.41737410e-02 -5.34086078e-02 -7.98049569e-02 -1.64493248e-01
      -1.24898717e-01 -9.08034369e-02 -1.77691415e-01 -2.06287459e-01
      -2.27184564e-01 -2.17285946e-01 -1.76591575e-01 -1.71092331e-01
      -1.47995517e-01 -6.55069351e-02 -7.65054151e-02 -4.68095206e-02
      -2.59124134e-02 -2.15130206e-02 1.36865065e-01 2.68802848e-02
      -2.73378193e-01 -4.15258557e-01</_>
    <_>
      -2.43074000e-01 3.33884144e+00 2.91543102e+00 9.06508029e-01
      1.31967461e+00 3.99558282e+00 7.98497391e+00 1.31853640e+00
      4.26187605e-01 4.26142104e-02 -3.47788393e-01 -5.27624011e-01
      -5.54940820e-01 -5.56078970e-01 -5.56078970e-01 -5.56078970e-01
      -5.56078970e-01 -5.56078970e-01 -5.56078970e-01 -5.56078970e-01
      -5.56078970e-01 -5.56078970e-01 -5.56078970e-01 -5.56078970e-01
      -5.56078970e-01 -5.56078970e-01 -5.56078970e-01 -5.56078970e-01
      -5.56078970e-01 -5.56078970e-01 -5.56078970e-01 -5.56078970e-01
      -5.56078970e-01 -5.56078970e-01 -5.56078970e-01 -5.56078970e-01
      -5.56078970e-01 -5.56078970e-01 -5.56078970e-01 -5.56078970e-01
      -5.56078970e-01 -5.56078970e-01 -5.56078970e-01 -5.56078970e-01
      -5.56078970e-01 -5.56078970e-01 -5.56078970e-01 -5.56078970e-01
      -5.56078970e-01 -5.56078970e-01 -5.52664399e-01 -5.43558776e-01
      -5.33315003e-01 -5.28762221e-01 -4.94616210e-01 -2.41935790e-01
      -3.36451903e-02 7.90366158e-02 3.97732615e-01 4.14760113e-02
      4.37524132e-02 7.10692108e-02 3.00985605e-01 4.71715629e-01
      7.65371203e-01 1.20130181e+00 1.94682276e+00 1.70438612e+00
      1.62243581e+00 1.55755842e+00 1.59056616e+00 1.27983761e+00
      1.01122248e+00 6.03746831e-01 3.31717014e-01 1.71230808e-01
      -1.90716788e-01 -3.01122189e-01 -3.84210795e-01 -4.85510588e-01
      -5.21933019e-01 -5.29900372e-01 -5.28762221e-01 -5.35591424e-01
      -5.33315003e-01 -5.49249828e-01 -5.44696987e-01 -5.49249828e-01
      -5.50387979e-01 -5.50387979e-01 -5.49249828e-01 -5.48111618e-01
      -5.46973407e-01 -5.52664399e-01 -5.51526189e-01 -5.54940820e-01
      -5.54940820e-01 -5.54940820e-01 -5.50387979e-01 -5.44696987e-01
      -5.56078970e-01 -5.56078970e-01 -5.56078970e-01 -5.56078970e-01
      -5.51526189e-01 -5.10550976e-01 -4.00145590e-01 -2.59008795e-01
      -9.05551910e-02 -1.48603395e-01 3.69232111e-02 8.92804116e-02
      1.41637608e-01 2.77083427e-01 3.59033823e-01 4.67162818e-01
      7.01632023e-01 4.01147217e-01 2.69116014e-01 2.85050809e-01
      2.90741801e-01 4.31878626e-01 4.62610006e-01 4.44398820e-01
      4.36431408e-01 5.95779419e-01 4.19358432e-01 4.03423607e-01
      4.33016807e-01 3.31717014e-01 1.55296013e-01 1.15459010e-01
      6.19636104e-02 -2.91378936e-03 -9.73843932e-02 -1.19010188e-01
      -1.80472985e-01 -1.83887586e-01 -2.45350391e-01 -2.36244798e-01
      -2.39659399e-01 -1.69090986e-01 -2.47626796e-01 -2.32830197e-01
      -2.35106587e-01 -2.47626796e-01 -2.66976207e-01 -2.71528989e-01
      -3.87625396e-01 -6.21001907e-02</_>
    <_>
      -4.34257835e-01 -3.46249580e-01 4.09547281e+00 6.20587444e+00
      3.84851074e+00 1.67165363e+00 1.30435395e+00 7.03563035e-01
      4.84440476e-01 -1.92684174e-01 -3.41759354e-01 -3.88457626e-01
      -4.16296959e-01 -4.14500862e-01 -4.27971512e-01 -4.34257835e-01
      -4.38748032e-01 -4.38748032e-01 -4.38748032e-01 -4.38748032e-01
      -4.38748032e-01 -4.38748032e-01 -4.38748032e-01 -4.38748032e-01
      -4.38748032e-01 -4.38748032e-01 -4.38748032e-01 -4.38748032e-01
      -4.38748032e-01 -4.38748032e-01 -4.38748032e-01 -4.38748032e-01
      -4.38748032e-01 -4.38748032e-01 -4.38748032e-01 -4.38748032e-01
      -4.38748032e-01 -4.38748032e-01 -4.38748032e-01 -4.38748032e-01
      -4.38748032e-01 -4.38748032e-01 -4.38748032e-01 -4.38748032e-01
      -4.38748032e-01 -4.38748032e-01 -4.38748032e-01 -4.38748032e-01
      -4.38748032e-01 -4.38748032e-01 -4.38748032e-01 -4.37849998e-01
      -3.15716118e-01 1.25223160e-01 3.43447685e-01 3.77573341e-01
      4.46722656e-01 7.54751503e-01 1.13192964e+00 1.52796674e+00
      2.37931180e+00 2.59035206e+00 2.71877217e+00 1.73810887e+00
      9.87344682e-01 2.43764877e-01 -4.63031121e-02 -3.33676964e-01
      -3.64210457e-01 -3.91151756e-01 -4.06418473e-01 -4.29767609e-01
      -4.19889122e-01 -4.27073479e-01 -4.27971512e-01 -4.22583252e-01
      -4.32461739e-01 -4.35155869e-01 -4.36951965e-01 -4.36951965e-01
      -4.36951965e-01 -4.37849998e-01 -4.37849998e-01 -4.36951965e-01
      -4.37849998e-01 -4.38748032e-01 -4.38748032e-01 -4.37849998e-01
      -4.38748032e-01 -4.38748032e-01 -4.38748032e-01 -4.38748032e-01
      -4.37849998e-01 -4.38748032e-01 -4.38748032e-01 -4.37849998e-01
      -4.38748032e-01 -4.38748032e-01 -4.38748032e-01 -4.35155869e-01
      -4.38748032e-01 -4.38748032e-01 -4.38748032e-01 -4.38748032e-01
      -4.27073479e-01 -3.47147614e-01 -2.23217636e-01 -4.98952828e-02
      5.97593963e-01 5.92205703e-01 7.37688720e-01 1.01877618e+00
      1.72463822e+00 2.14761662e+00 2.95495749e+00 2.31914282e+00
      1.54143739e+00 2.88667053e-01 2.82344837e-02 -1.35209396e-01
      -2.16033295e-01 -2.43872643e-01 -2.51955032e-01 -2.91468948e-01
      -2.91468948e-01 -2.70813942e-01 -2.99551338e-01 -3.03143501e-01
      -3.17512184e-01 -3.22002411e-01 -3.37269157e-01 -3.37269157e-01
      -3.77681106e-01 -3.89355659e-01 -3.98336083e-01 -4.10010666e-01
      -4.11806732e-01 -4.12704796e-01 -4.04622406e-01 -4.24379349e-01
      -4.25277382e-01 -4.27971512e-01 -4.31563705e-01 -4.27073479e-01
      -4.32461739e-01 -4.30665642e-01 -4.26175445e-01 -4.34257835e-01
      -4.32461739e-01 -4.34257835e-01</_>
    <_>
      -4.23489273e-01 -3.02251160e-01 2.44401693e+00 7.38155270e+00
      3.41212583e+00 2.41976929e+00 2.15663767e+00 8.31998944e-01
      -7.32457936e-02 -3.87566864e-01 -4.26183462e-01 -4.23489273e-01
      -4.18998986e-01 -4.27979589e-01 -4.27081525e-01 -4.34266001e-01
      -4.25285399e-01 -4.38756317e-01 -4.38756317e-01 -4.37858254e-01
      -4.38756317e-01 -4.38756317e-01 -4.38756317e-01 -4.38756317e-01
      -4.38756317e-01 -4.38756317e-01 -4.38756317e-01 -4.38756317e-01
      -4.38756317e-01 -4.38756317e-01 -4.38756317e-01 -4.38756317e-01
      -4.38756317e-01 -4.37858254e-01 -4.37858254e-01 -4.38756317e-01
      -4.38756317e-01 -4.38756317e-01 -4.38756317e-01 -4.38756317e-01
      -4.38756317e-01 -4.38756317e-01 -4.38756317e-01 -4.38756317e-01
      -4.38756317e-01 -4.38756317e-01 -4.38756317e-01 -4.38756317e-01
      -4.38756317e-01 -4.38756317e-01 -4.31571811e-01 -4.00139719e-01
      -3.35479379e-01 -2.60940373e-01 -4.09156233e-02 1.00079834e-01
      4.11706746e-01 9.20008779e-01 1.57828689e+00 1.47411191e+00
      2.19256020e+00 2.90921211e+00 2.57423568e+00 1.79471946e+00
      1.06100428e+00 3.18308473e-01 9.10992324e-02 -2.61838436e-01
      -3.17518175e-01 -3.60625058e-01 -4.01935846e-01 -4.06426132e-01
      -4.17202860e-01 -4.24387336e-01 -4.28877652e-01 -4.36062127e-01
      -4.36062127e-01 -4.35164064e-01 -4.38756317e-01 -4.36062127e-01
      -4.34266001e-01 -4.35164064e-01 -4.37858254e-01 -4.36062127e-01
      -4.38756317e-01 -4.37858254e-01 -4.37858254e-01 -4.38756317e-01
      -4.33367938e-01 -4.37858254e-01 -4.38756317e-01 -4.38756317e-01
      -4.38756317e-01 -4.38756317e-01 -4.38756317e-01 -4.38756317e-01
      -4.38756317e-01 -4.38756317e-01 -4.38756317e-01 -4.38756317e-01
      -4.38756317e-01 -4.38756317e-01 -4.38756317e-01 -4.38756317e-01
      -4.27979589e-01 -3.94751370e-01 -2.65430689e-01 4.70942818e-02
      5.09595275e-01 5.90420723e-01 6.51488841e-01 8.32897007e-01
      1.06369841e+00 1.54505873e+00 1.93661296e+00 2.18896794e+00
      1.88003516e+00 5.83236217e-01 2.08745122e-01 -2.11582966e-02
      -5.79787679e-02 -8.40225145e-02 -7.05516115e-02 -8.31244513e-02
      -1.37008071e-01 -1.06474020e-01 -2.33998567e-01 -2.10649014e-01
      -2.88780242e-01 -3.10333699e-01 -3.36377442e-01 -3.27396840e-01
      -3.52542520e-01 -3.10333699e-01 -3.53440583e-01 -3.44459981e-01
      -3.46256107e-01 -3.43561918e-01 -3.79484326e-01 -3.61523122e-01
      -3.86668801e-01 -3.96547467e-01 -3.97445530e-01 -4.12712574e-01
      -4.21693176e-01 -4.24387336e-01 -4.23489273e-01 -4.12712574e-01
      -4.23489273e-01 -4.36062127e-01</_>
    <_>
      -4.63332653e-01 -9.51973200e-02 6.12257481e+00 3.74264169e+00
      4.29540777e+00 5.32438517e+00 2.45585656e+00 8.02062213e-01
      -2.42721625e-02 -4.61081058e-01 -5.09490311e-01 -4.93729144e-01
      -5.26377261e-01 -5.27503014e-01 -5.18496692e-01 -5.26377261e-01
      -5.26377261e-01 -5.36509395e-01 -5.42138398e-01 -5.43264210e-01
      -5.45515776e-01 -5.41012585e-01 -5.47767341e-01 -5.43264210e-01
      -5.46641588e-01 -5.50018966e-01 -5.48893154e-01 -5.48893154e-01
      -5.48893154e-01 -5.50018966e-01 -5.48893154e-01 -5.48893154e-01
      -5.46641588e-01 -5.43264210e-01 -5.39886773e-01 -5.50018966e-01
      -5.50018966e-01 -5.50018966e-01 -5.50018966e-01 -5.50018966e-01
      -5.50018966e-01 -5.50018966e-01 -5.50018966e-01 -5.50018966e-01
      -5.50018966e-01 -5.50018966e-01 -5.50018966e-01 -5.50018966e-01
      -5.50018966e-01 -5.50018966e-01 -5.00483930e-01 -4.05917048e-01
      1.20955542e-01 1.10823378e-01 5.60016036e-01 8.80867958e-01
      9.29277182e-01 8.04313779e-01 1.21410358e+00 1.17132330e+00
      1.69932163e+00 2.12937570e+00 2.16089797e+00 1.46853352e+00
      9.77686405e-01 5.47632277e-01 6.45576537e-01 2.99957126e-01
      1.59232616e-01 1.19829744e-01 3.87274148e-03 -2.21286491e-01
      -3.67639989e-01 -4.09294456e-01 -4.57703680e-01 -4.89225984e-01
      -5.37635207e-01 -5.44389963e-01 -5.48893154e-01 -5.44389963e-01
      -5.48893154e-01 -5.48893154e-01 -5.47767341e-01 -5.44389963e-01
      -5.46641588e-01 -5.50018966e-01 -5.48893154e-01 -5.50018966e-01
      -5.48893154e-01 -5.50018966e-01 -5.50018966e-01 -5.50018966e-01
      -5.48893154e-01 -5.48893154e-01 -5.48893154e-01 -5.50018966e-01
      -5.48893154e-01 -5.50018966e-01 -5.50018966e-01 -5.46641588e-01
      -5.50018966e-01 -5.50018966e-01 -5.48893154e-01 -5.37635207e-01
      -3.02343816e-01 -3.89075130e-02 2.65057445e-01 4.55271974e-02
      1.86251715e-01 1.49100438e-01 1.06320187e-01 2.41415724e-01
      2.70686418e-01 2.83070177e-01 2.27906168e-01 2.08767638e-01
      3.38234186e-01 3.02208722e-01 3.72008085e-01 2.93202341e-01
      2.25654587e-01 2.02012867e-01 1.46848857e-01 1.65987387e-01
      1.23207130e-01 2.81944394e-01 3.08918487e-02 -4.00783168e-03
      -8.95683393e-02 -4.22849022e-02 -5.24170659e-02 -4.34106961e-02
      -8.61909539e-02 5.22819757e-02 -8.84425417e-02 -8.50651562e-02
      -1.54864520e-01 -1.74003050e-01 -1.98770568e-01 -1.72877252e-01
      -4.90396768e-02 1.34465098e-01 2.07596831e-02 -2.53979582e-02
      5.90367541e-02 7.81752840e-02 -1.52612925e-01 -2.64066756e-01
      -3.25985521e-01 -2.74198920e-01</_>
    <_>
      -4.17946726e-01 -2.22556025e-01 4.39193535e+00 6.24169111e+00
      2.67473507e+00 2.46901536e+00 1.30872166e+00 4.73792315e-01
      2.13845223e-01 -3.43922049e-01 -3.95567179e-01 -4.13642973e-01
      -4.20528978e-01 -4.20528978e-01 -4.20528978e-01 -4.20528978e-01
      -4.20528978e-01 -4.20528978e-01 -4.20528978e-01 -4.20528978e-01
      -4.20528978e-01 -4.20528978e-01 -4.20528978e-01 -4.20528978e-01
      -4.20528978e-01 -4.20528978e-01 -4.20528978e-01 -4.20528978e-01
      -4.20528978e-01 -4.20528978e-01 -4.20528978e-01 -4.20528978e-01
      -4.20528978e-01 -4.20528978e-01 -4.20528978e-01 -4.20528978e-01
      -4.20528978e-01 -4.20528978e-01 -4.20528978e-01 -4.20528978e-01
      -4.20528978e-01 -4.20528978e-01 -4.20528978e-01 -4.20528978e-01
      -4.20528978e-01 -4.20528978e-01 -4.20528978e-01 -4.20528978e-01
      -4.20528978e-01 -4.20528978e-01 -4.19668227e-01 -4.20528978e-01
      -3.95567179e-01 1.23948487e-03 3.37793499e-01 3.12831700e-01
      2.36224771e-01 7.95713544e-01 1.45246720e+00 2.09114528e+00
      3.00784612e+00 2.91316342e+00 1.95342493e+00 1.44558120e+00
      4.50552016e-01 4.51378338e-02 -2.07062498e-01 -3.15517247e-01
      -3.71466130e-01 -3.58554840e-01 -3.89541894e-01 -4.00731683e-01
      -4.14503723e-01 -4.18807477e-01 -4.20528978e-01 -4.17946726e-01
      -4.20528978e-01 -4.20528978e-01 -4.20528978e-01 -4.20528978e-01
      -4.20528978e-01 -4.20528978e-01 -4.20528978e-01 -4.20528978e-01
      -4.20528978e-01 -4.20528978e-01 -4.20528978e-01 -4.20528978e-01
      -4.20528978e-01 -4.20528978e-01 -4.20528978e-01 -4.20528978e-01
      -4.20528978e-01 -4.20528978e-01 -4.20528978e-01 -4.20528978e-01
      -4.20528978e-01 -4.20528978e-01 -4.20528978e-01 -4.20528978e-01
      -4.20528978e-01 -4.20528978e-01 -4.20528978e-01 -4.20528978e-01
      -4.19668227e-01 -3.62858593e-01 -7.27851838e-02 4.04071391e-01
      1.09009063e+00 1.20973516e+00 1.81484377e+00 2.51119208e+00
      2.98718810e+00 1.91038728e+00 1.27343082e+00 4.38501477e-01
      1.47567317e-01 -1.10658273e-01 -1.54556617e-01 -2.13948503e-01
      -2.13948503e-01 -2.22556025e-01 -2.23416775e-01 -2.51821578e-01
      -2.76783407e-01 -2.69897372e-01 -3.21542501e-01 -3.31010759e-01
      -3.18099499e-01 -3.13795745e-01 -3.39618295e-01 -3.58554840e-01
      -3.77491385e-01 -3.80934387e-01 -4.03313935e-01 -4.04174685e-01
      -4.04174685e-01 -4.03313935e-01 -4.02453184e-01 -4.03313935e-01
      -4.11060691e-01 -4.05035436e-01 -4.08478439e-01 -4.12782222e-01
      -4.11060691e-01 -4.19668227e-01 -4.20528978e-01 -4.20528978e-01
      -4.20528978e-01 -4.20528978e-01</_>
    <_>
      -4.55005080e-01 5.71691155e-01 -7.61286393e-02 1.04475670e-01
      1.30294228e+00 6.87910032e+00 6.84474659e+00 2.86359906e+00
      8.06280494e-01 -1.79190889e-01 -3.97093922e-01 -4.13780183e-01
      -4.53042001e-01 -4.37337279e-01 -4.12798643e-01 -4.15743291e-01
      -4.34392631e-01 -4.50097352e-01 -4.47152734e-01 -4.42245007e-01
      -4.60894346e-01 -4.74635988e-01 -4.76599067e-01 -4.78562176e-01
      -4.79543716e-01 -4.79543716e-01 -4.79543716e-01 -4.79543716e-01
      -4.79543716e-01 -4.79543716e-01 -4.79543716e-01 -4.79543716e-01
      -4.79543716e-01 -4.79543716e-01 -4.79543716e-01 -4.79543716e-01
      -4.79543716e-01 -4.79543716e-01 -4.79543716e-01 -4.79543716e-01
      -4.79543716e-01 -4.79543716e-01 -4.79543716e-01 -4.79543716e-01
      -4.79543716e-01 -4.79543716e-01 -4.79543716e-01 -4.79543716e-01
      -4.79543716e-01 -4.79543716e-01 -3.58813673e-01 6.03061393e-02
      -8.20179135e-02 -1.11464269e-01 -1.43855259e-01 2.45818183e-01
      1.01240492e+00 2.01947021e+00 2.67121625e+00 2.03811955e+00
      2.06952906e+00 1.70243120e+00 1.17730451e+00 8.45542312e-01
      4.63721216e-01 1.43737480e-01 2.69336030e-02 -2.16489598e-01
      -2.71456122e-01 -3.31330389e-01 -3.69610667e-01 -3.82370740e-01
      -3.95130843e-01 -4.03964728e-01 -4.00038570e-01 -3.52924377e-01
      -3.83352280e-01 -3.52924377e-01 -3.72555286e-01 -3.85315388e-01
      -4.23595637e-01 -4.17706370e-01 -4.33411092e-01 -4.32429552e-01
      -4.53042001e-01 -4.58931267e-01 -4.55986619e-01 -4.63838995e-01
      -4.63838995e-01 -4.68746722e-01 -4.68746722e-01 -4.69728261e-01
      -4.74635988e-01 -4.73654449e-01 -4.72672909e-01 -4.74635988e-01
      -4.75617528e-01 -4.75617528e-01 -4.77580637e-01 -4.28503364e-01
      -4.79543716e-01 -4.79543716e-01 -4.79543716e-01 -4.79543716e-01
      -4.60894346e-01 -3.66666019e-01 -2.51825243e-01 -8.88887271e-02
      3.04710895e-01 2.12445647e-01 3.39064986e-01 4.06791598e-01
      3.03729355e-01 3.23360264e-01 3.75382155e-01 3.67529780e-01
      6.70827270e-01 3.09618622e-01 2.75264531e-01 2.97840089e-01
      2.78209180e-01 1.91833198e-01 1.14291124e-01 -8.40202440e-03
      -6.53316453e-02 -3.49429855e-03 -9.77226347e-02 -1.76246256e-01
      -1.60541534e-01 -1.17353544e-01 -1.29132077e-01 -1.05574995e-01
      -1.28150538e-01 -7.51470998e-02 -1.66430801e-01 -9.77226347e-02
      -8.98702741e-02 -5.74792847e-02 -6.14054650e-02 -8.79071876e-02
      -1.03651145e-02 1.63368389e-01 2.59559810e-01 3.24341804e-01
      2.21279547e-01 1.42755941e-01 -6.63131922e-02 -2.91087031e-01
      -3.54887486e-01 -4.45189625e-01</_>
    <_>
      -1.01894522e-02 -6.12661242e-01 -4.45532620e-01 -1.03188455e-01
      -3.39055479e-01 5.65326095e-01 3.25415641e-01 1.61392343e+00
      3.59385872e+00 3.46312094e+00 1.86057305e+00 2.06948376e+00
      1.67861843e+00 1.99131072e+00 1.28370976e+00 1.33357871e+00
      7.14933217e-01 3.95501852e-01 -1.23405628e-01 -2.44708672e-01
      -4.23967630e-01 -3.92967969e-01 -6.35574043e-01 -5.99183142e-01
      -6.50399983e-01 -6.46356523e-01 -6.27487183e-01 -6.38269663e-01
      -6.57139063e-01 -6.47704363e-01 -6.58486843e-01 -6.55791223e-01
      -6.47704363e-01 -6.00530922e-01 -6.51747763e-01 -6.58486843e-01
      -6.58486843e-01 -6.58486843e-01 -6.58486843e-01 -6.58486843e-01
      -6.58486843e-01 -6.58486843e-01 -6.58486843e-01 -6.58486843e-01
      -6.58486843e-01 -6.58486843e-01 -6.58486843e-01 -6.58486843e-01
      -6.58486843e-01 -6.58486843e-01 2.41856694e+00 1.81474745e+00
      1.33357871e+00 3.10729885e+00 4.40389347e+00 4.32706833e+00
      2.71104217e+00 1.67592287e+00 1.37670875e+00 6.44846976e-01
      2.35112265e-01 -2.09719464e-02 -2.81099588e-01 -4.48228240e-01
      -5.25053501e-01 -5.74922502e-01 -6.16704702e-01 -6.27487183e-01
      -6.28834963e-01 -6.36921883e-01 -6.45008743e-01 -6.53095603e-01
      -6.57139063e-01 -6.51747763e-01 -6.58486843e-01 -6.47704363e-01
      -6.49052143e-01 -6.57139063e-01 -6.58486843e-01 -6.54443383e-01
      -6.58486843e-01 -6.58486843e-01 -6.57139063e-01 -6.58486843e-01
      -6.58486843e-01 -6.57139063e-01 -6.55791223e-01 -6.58486843e-01
      -6.55791223e-01 -6.55791223e-01 -6.58486843e-01 -6.58486843e-01
      -6.55791223e-01 -6.58486843e-01 -6.58486843e-01 -6.58486843e-01
      -6.58486843e-01 -6.58486843e-01 -6.58486843e-01 -6.58486843e-01
      -6.58486843e-01 -6.58486843e-01 -6.28834963e-01 -4.84619141e-01
      -1.55753106e-01 5.58533184e-02 3.72589052e-01 2.67459750e-01
      4.30544943e-01 1.32678583e-01 1.46156698e-01 1.67667791e-02
      -3.17544378e-02 -1.16666570e-01 -1.31492496e-01 -3.98413092e-02
      -2.36675683e-02 -1.51709676e-01 -8.16234723e-02 -1.07231893e-01
      -8.83625299e-02 -2.77110040e-02 -4.92759906e-02 -9.77972075e-02
      -3.17544378e-02 2.58025050e-01 9.76354778e-02 1.63678244e-01
      1.15157031e-01 1.17852651e-01 5.85489422e-02 5.31576946e-02
      1.16504841e-01 3.18676591e-01 1.74460739e-01 2.16242895e-01
      3.15980971e-01 3.61806571e-01 3.30806881e-01 2.71503180e-01
      3.03850651e-01 3.65850002e-01 2.09503844e-01 9.22442302e-02
      1.81145910e-02 -9.77972075e-02 -2.35273987e-01 -3.72750789e-01
      -5.54705322e-01 -5.56053162e-01</_>
    <_>
      -4.16271031e-01 -4.14281964e-01 -2.15375692e-01 1.94371194e-01
      9.28335309e-01 5.83137465e+00 5.23167229e+00 5.89303541e+00
      2.15459228e+00 -1.60676479e-01 -3.74500692e-01 -4.05331165e-01
      -4.53068674e-01 -4.51079607e-01 -4.53068674e-01 -4.69975710e-01
      -4.65997577e-01 -4.74948376e-01 -4.72959310e-01 -4.75942910e-01
      -4.81910080e-01 -4.81910080e-01 -4.79921013e-01 -4.76937413e-01
      -4.84893680e-01 -4.84893680e-01 -4.77931947e-01 -4.85888213e-01
      -4.85888213e-01 -4.84893680e-01 -4.85888213e-01 -4.83899146e-01
      -4.84893680e-01 -4.75942910e-01 -4.85888213e-01 -4.85888213e-01
      -4.85888213e-01 -4.85888213e-01 -4.85888213e-01 -4.85888213e-01
      -4.85888213e-01 -4.85888213e-01 -4.85888213e-01 -4.85888213e-01
      -4.85888213e-01 -4.85888213e-01 -4.85888213e-01 -4.85888213e-01
      -4.85888213e-01 -4.85888213e-01 7.85122812e-01 2.11381650e+00
      -7.91249052e-02 -9.70264748e-02 -4.13327180e-02 3.05758715e-01
      8.47778261e-01 1.40769935e+00 2.53549790e+00 2.42609930e+00
      2.15956497e+00 1.48328376e+00 8.61701727e-01 4.40020442e-01
      1.49617285e-01 3.32571305e-02 -1.38796791e-01 -2.70074904e-01
      -3.35713983e-01 -3.78478825e-01 -4.17265564e-01 -4.22238201e-01
      -4.40139771e-01 -4.50085074e-01 -4.51079607e-01 -4.54063207e-01
      -4.73953843e-01 -4.71964777e-01 -4.74948376e-01 -4.75942910e-01
      -4.80915546e-01 -4.81910080e-01 -4.79921013e-01 -4.77931947e-01
      -4.85888213e-01 -4.85888213e-01 -4.79921013e-01 -4.82904613e-01
      -4.85888213e-01 -4.85888213e-01 -4.82904613e-01 -4.85888213e-01
      -4.84893680e-01 -4.84893680e-01 -4.85888213e-01 -4.85888213e-01
      -4.85888213e-01 -4.85888213e-01 -4.84893680e-01 -4.82904613e-01
      -4.85888213e-01 -4.85888213e-01 -4.85888213e-01 -4.79921013e-01
      -4.01353061e-01 -2.98916310e-01 -2.51178831e-01 -2.10403040e-01
      2.33118162e-02 2.33118162e-02 2.14261830e-01 2.69955575e-01
      4.20129806e-01 5.16599357e-01 4.05211836e-01 4.05211836e-01
      3.47529024e-01 1.23759478e-01 1.48622766e-01 4.81751002e-02
      5.71258813e-02 1.23719722e-02 9.38837789e-03 8.39384645e-03
      -9.50771663e-03 1.66524321e-01 -5.52959181e-03 -6.81850612e-02
      -5.12780324e-02 -3.43709998e-02 -7.41522536e-02 -7.31577203e-02
      -8.60866234e-02 1.13774408e-02 -5.92342801e-02 -5.32670952e-02
      -4.82944362e-02 1.21770412e-01 1.70502454e-01 4.45987612e-01
      2.15256363e-01 6.60806358e-01 2.93824315e-01 1.48622766e-01
      -5.92342801e-02 -2.09408507e-01 -3.13834280e-01 -3.25768679e-01
      -3.68533522e-01 -3.28752249e-01</_>
    <_>
      -4.61852908e-01 -4.56098437e-01 -3.94717544e-01 5.96008539e-01
      3.45117950e+00 8.69157410e+00 4.36422014e+00 1.88884366e+00
      3.22671711e-01 -4.65727560e-02 -4.01431084e-01 -3.67863417e-01
      -4.14858162e-01 -4.48425829e-01 -3.74576926e-01 -4.22530770e-01
      -3.40050191e-01 -3.56354475e-01 -3.75536025e-01 -4.42671388e-01
      -4.46507692e-01 -4.62811977e-01 -4.67607379e-01 -4.62811977e-01
      -4.68566447e-01 -4.67607379e-01 -4.62811977e-01 -4.68566447e-01
      -4.68566447e-01 -4.68566447e-01 -4.68566447e-01 -4.68566447e-01
      -4.67607379e-01 -4.64730144e-01 -4.68566447e-01 -4.68566447e-01
      -4.68566447e-01 -4.68566447e-01 -4.68566447e-01 -4.68566447e-01
      -4.68566447e-01 -4.68566447e-01 -4.68566447e-01 -4.68566447e-01
      -4.68566447e-01 -4.68566447e-01 -4.68566447e-01 -4.68566447e-01
      -4.68566447e-01 -4.68566447e-01 -3.60190779e-01 2.97643661e+00
      7.61928797e-01 -1.00281045e-01 2.18132377e-01 1.92237303e-01
      4.44474429e-01 1.02471566e+00 1.92624772e+00 1.39204204e+00
      1.45246387e+00 1.20310390e+00 1.04965174e+00 7.52337992e-01
      5.80663323e-01 3.99397850e-01 2.99653888e-01 -5.04090600e-02
      -1.78925321e-01 -3.04564357e-01 -3.77454162e-01 -4.23489839e-01
      -4.35957849e-01 -4.26367074e-01 -4.39794153e-01 -4.47466761e-01
      -4.58016604e-01 -4.52262133e-01 -4.59934741e-01 -4.58975673e-01
      -4.54180300e-01 -4.65689212e-01 -4.55139369e-01 -4.54180300e-01
      -4.64730144e-01 -4.68566447e-01 -4.65689212e-01 -4.63771045e-01
      -4.66648281e-01 -4.65689212e-01 -4.68566447e-01 -4.68566447e-01
      -4.60893840e-01 -4.68566447e-01 -4.68566447e-01 -4.68566447e-01
      -4.68566447e-01 -4.67607379e-01 -4.68566447e-01 -4.66648281e-01
      -4.68566447e-01 -4.68566447e-01 -4.68566447e-01 -4.68566447e-01
      -4.29244310e-01 -3.88963073e-01 -3.17991436e-01 -1.09871805e-01
      2.42109284e-01 1.49078861e-01 1.70178548e-01 1.69219464e-01
      1.55792400e-01 1.31815478e-01 7.81072006e-02 5.22121303e-02
      9.53705758e-02 7.61890411e-02 5.02939783e-02 8.57798085e-02
      1.27979174e-01 9.44114998e-02 -1.49615714e-03 5.21737896e-03
      -2.64321472e-02 7.13936612e-02 1.10715799e-01 6.65982813e-02
      3.20715234e-02 7.13936612e-02 8.48207325e-02 3.49487513e-02
      1.04961343e-01 1.26061022e-01 1.32774562e-01 3.97441350e-02
      5.50893582e-02 3.30305994e-02 8.00253525e-02 2.05626041e-02
      -1.30050760e-02 9.34524238e-02 2.79513270e-01 2.82390505e-01
      5.60484380e-02 6.17645541e-03 3.68669070e-02 1.74973935e-01
      -1.18503496e-01 -3.97594780e-01</_>
    <_>
      -4.44324553e-01 8.22854042e-01 1.28832966e-01 1.17502019e-01
      9.92818296e-01 7.81310987e+00 6.61202812e+00 1.99749637e+00
      2.38365546e-01 -3.32903475e-01 -4.12220180e-01 -3.80115807e-01
      -4.16941404e-01 -4.28272367e-01 -4.25439626e-01 -4.37714815e-01
      -3.48955661e-01 -4.17885661e-01 -4.50934261e-01 -4.14108664e-01
      -4.47157294e-01 -4.55655515e-01 -4.58488256e-01 -4.57543999e-01
      -4.61320996e-01 -4.61320996e-01 -4.61320996e-01 -4.61320996e-01
      -4.61320996e-01 -4.61320996e-01 -4.61320996e-01 -4.61320996e-01
      -4.61320996e-01 -4.61320996e-01 -4.61320996e-01 -4.61320996e-01
      -4.61320996e-01 -4.61320996e-01 -4.61320996e-01 -4.61320996e-01
